digraph Tree {
node [shape=box, style="filled, rounded", color="black", fontname=helvetica] ;
edge [fontname=helvetica] ;
0 [label=<X<SUB>6</SUB> &le; 0.011<br/>gini = 0.5<br/>samples = 13500<br/>value = [6828, 6672]>, fillcolor="#e5813906"] ;
1 [label=<X<SUB>98</SUB> &le; 0.301<br/>gini = 0.399<br/>samples = 6865<br/>value = [1886, 4979]>, fillcolor="#399de59e"] ;
0 -> 1 [labeldistance=2.5, labelangle=45, headlabel="True"] ;
2 [label=<X<SUB>12</SUB> &le; 772.757<br/>gini = 0.324<br/>samples = 5817<br/>value = [1182, 4635]>, fillcolor="#399de5be"] ;
1 -> 2 ;
3 [label=<X<SUB>0</SUB> &le; 55.5<br/>gini = 0.369<br/>samples = 434<br/>value = [328, 106]>, fillcolor="#e58139ad"] ;
2 -> 3 ;
4 [label=<X<SUB>122</SUB> &le; 0.063<br/>gini = 0.489<br/>samples = 101<br/>value = [58, 43]>, fillcolor="#e5813942"] ;
3 -> 4 ;
5 [label=<X<SUB>123</SUB> &le; 0.818<br/>gini = 0.32<br/>samples = 5<br/>value = [1, 4]>, fillcolor="#399de5bf"] ;
4 -> 5 ;
6 [label=<gini = 0.0<br/>samples = 4<br/>value = [0, 4]>, fillcolor="#399de5ff"] ;
5 -> 6 ;
7 [label=<gini = 0.0<br/>samples = 1<br/>value = [1, 0]>, fillcolor="#e58139ff"] ;
5 -> 7 ;
8 [label=<X<SUB>123</SUB> &le; 0.193<br/>gini = 0.482<br/>samples = 96<br/>value = [57, 39]>, fillcolor="#e5813951"] ;
4 -> 8 ;
9 [label=<X<SUB>122</SUB> &le; 0.085<br/>gini = 0.375<br/>samples = 16<br/>value = [12, 4]>, fillcolor="#e58139aa"] ;
8 -> 9 ;
10 [label=<gini = 0.0<br/>samples = 1<br/>value = [0, 1]>, fillcolor="#399de5ff"] ;
9 -> 10 ;
11 [label=<X<SUB>123</SUB> &le; 0.03<br/>gini = 0.32<br/>samples = 15<br/>value = [12, 3]>, fillcolor="#e58139bf"] ;
9 -> 11 ;
12 [label=<X<SUB>123</SUB> &le; 0.019<br/>gini = 0.5<br/>samples = 4<br/>value = [2, 2]>, fillcolor="#e5813900"] ;
11 -> 12 ;
13 [label=<gini = 0.0<br/>samples = 2<br/>value = [2, 0]>, fillcolor="#e58139ff"] ;
12 -> 13 ;
14 [label=<gini = 0.0<br/>samples = 2<br/>value = [0, 2]>, fillcolor="#399de5ff"] ;
12 -> 14 ;
15 [label=<X<SUB>123</SUB> &le; 0.159<br/>gini = 0.165<br/>samples = 11<br/>value = [10, 1]>, fillcolor="#e58139e6"] ;
11 -> 15 ;
16 [label=<gini = 0.0<br/>samples = 8<br/>value = [8, 0]>, fillcolor="#e58139ff"] ;
15 -> 16 ;
17 [label=<X<SUB>0</SUB> &le; 33.5<br/>gini = 0.444<br/>samples = 3<br/>value = [2, 1]>, fillcolor="#e581397f"] ;
15 -> 17 ;
18 [label=<gini = 0.0<br/>samples = 1<br/>value = [0, 1]>, fillcolor="#399de5ff"] ;
17 -> 18 ;
19 [label=<gini = 0.0<br/>samples = 2<br/>value = [2, 0]>, fillcolor="#e58139ff"] ;
17 -> 19 ;
20 [label=<X<SUB>123</SUB> &le; 0.837<br/>gini = 0.492<br/>samples = 80<br/>value = [45, 35]>, fillcolor="#e5813939"] ;
8 -> 20 ;
21 [label=<X<SUB>123</SUB> &le; 0.773<br/>gini = 0.499<br/>samples = 65<br/>value = [34, 31]>, fillcolor="#e5813917"] ;
20 -> 21 ;
22 [label=<X<SUB>123</SUB> &le; 0.533<br/>gini = 0.488<br/>samples = 59<br/>value = [34, 25]>, fillcolor="#e5813944"] ;
21 -> 22 ;
23 [label=<X<SUB>123</SUB> &le; 0.338<br/>gini = 0.498<br/>samples = 32<br/>value = [15, 17]>, fillcolor="#399de51e"] ;
22 -> 23 ;
24 [label=<X<SUB>0</SUB> &le; 50.5<br/>gini = 0.475<br/>samples = 18<br/>value = [11, 7]>, fillcolor="#e581395d"] ;
23 -> 24 ;
25 [label=<X<SUB>123</SUB> &le; 0.301<br/>gini = 0.5<br/>samples = 14<br/>value = [7, 7]>, fillcolor="#e5813900"] ;
24 -> 25 ;
26 [label=<X<SUB>122</SUB> &le; 0.737<br/>gini = 0.486<br/>samples = 12<br/>value = [5, 7]>, fillcolor="#399de549"] ;
25 -> 26 ;
27 [label=<X<SUB>122</SUB> &le; 0.47<br/>gini = 0.5<br/>samples = 10<br/>value = [5, 5]>, fillcolor="#e5813900"] ;
26 -> 27 ;
28 [label=<X<SUB>123</SUB> &le; 0.206<br/>gini = 0.408<br/>samples = 7<br/>value = [2, 5]>, fillcolor="#399de599"] ;
27 -> 28 ;
29 [label=<gini = 0.0<br/>samples = 3<br/>value = [0, 3]>, fillcolor="#399de5ff"] ;
28 -> 29 ;
30 [label=<X<SUB>123</SUB> &le; 0.22<br/>gini = 0.5<br/>samples = 4<br/>value = [2, 2]>, fillcolor="#e5813900"] ;
28 -> 30 ;
31 [label=<gini = 0.0<br/>samples = 1<br/>value = [1, 0]>, fillcolor="#e58139ff"] ;
30 -> 31 ;
32 [label=<X<SUB>122</SUB> &le; 0.246<br/>gini = 0.444<br/>samples = 3<br/>value = [1, 2]>, fillcolor="#399de57f"] ;
30 -> 32 ;
33 [label=<gini = 0.0<br/>samples = 1<br/>value = [0, 1]>, fillcolor="#399de5ff"] ;
32 -> 33 ;
34 [label=<X<SUB>123</SUB> &le; 0.264<br/>gini = 0.5<br/>samples = 2<br/>value = [1, 1]>, fillcolor="#e5813900"] ;
32 -> 34 ;
35 [label=<gini = 0.0<br/>samples = 1<br/>value = [1, 0]>, fillcolor="#e58139ff"] ;
34 -> 35 ;
36 [label=<gini = 0.0<br/>samples = 1<br/>value = [0, 1]>, fillcolor="#399de5ff"] ;
34 -> 36 ;
37 [label=<gini = 0.0<br/>samples = 3<br/>value = [3, 0]>, fillcolor="#e58139ff"] ;
27 -> 37 ;
38 [label=<gini = 0.0<br/>samples = 2<br/>value = [0, 2]>, fillcolor="#399de5ff"] ;
26 -> 38 ;
39 [label=<gini = 0.0<br/>samples = 2<br/>value = [2, 0]>, fillcolor="#e58139ff"] ;
25 -> 39 ;
40 [label=<gini = 0.0<br/>samples = 4<br/>value = [4, 0]>, fillcolor="#e58139ff"] ;
24 -> 40 ;
41 [label=<X<SUB>0</SUB> &le; 45.5<br/>gini = 0.408<br/>samples = 14<br/>value = [4, 10]>, fillcolor="#399de599"] ;
23 -> 41 ;
42 [label=<X<SUB>122</SUB> &le; 0.529<br/>gini = 0.463<br/>samples = 11<br/>value = [4, 7]>, fillcolor="#399de56d"] ;
41 -> 42 ;
43 [label=<X<SUB>0</SUB> &le; 28.5<br/>gini = 0.48<br/>samples = 5<br/>value = [3, 2]>, fillcolor="#e5813955"] ;
42 -> 43 ;
44 [label=<X<SUB>122</SUB> &le; 0.368<br/>gini = 0.444<br/>samples = 3<br/>value = [1, 2]>, fillcolor="#399de57f"] ;
43 -> 44 ;
45 [label=<gini = 0.0<br/>samples = 2<br/>value = [0, 2]>, fillcolor="#399de5ff"] ;
44 -> 45 ;
46 [label=<gini = 0.0<br/>samples = 1<br/>value = [1, 0]>, fillcolor="#e58139ff"] ;
44 -> 46 ;
47 [label=<gini = 0.0<br/>samples = 2<br/>value = [2, 0]>, fillcolor="#e58139ff"] ;
43 -> 47 ;
48 [label=<X<SUB>0</SUB> &le; 43.5<br/>gini = 0.278<br/>samples = 6<br/>value = [1, 5]>, fillcolor="#399de5cc"] ;
42 -> 48 ;
49 [label=<gini = 0.0<br/>samples = 5<br/>value = [0, 5]>, fillcolor="#399de5ff"] ;
48 -> 49 ;
50 [label=<gini = 0.0<br/>samples = 1<br/>value = [1, 0]>, fillcolor="#e58139ff"] ;
48 -> 50 ;
51 [label=<gini = 0.0<br/>samples = 3<br/>value = [0, 3]>, fillcolor="#399de5ff"] ;
41 -> 51 ;
52 [label=<X<SUB>0</SUB> &le; 38.0<br/>gini = 0.417<br/>samples = 27<br/>value = [19, 8]>, fillcolor="#e5813994"] ;
22 -> 52 ;
53 [label=<X<SUB>122</SUB> &le; 0.959<br/>gini = 0.231<br/>samples = 15<br/>value = [13, 2]>, fillcolor="#e58139d8"] ;
52 -> 53 ;
54 [label=<X<SUB>123</SUB> &le; 0.669<br/>gini = 0.133<br/>samples = 14<br/>value = [13, 1]>, fillcolor="#e58139eb"] ;
53 -> 54 ;
55 [label=<gini = 0.0<br/>samples = 10<br/>value = [10, 0]>, fillcolor="#e58139ff"] ;
54 -> 55 ;
56 [label=<X<SUB>123</SUB> &le; 0.693<br/>gini = 0.375<br/>samples = 4<br/>value = [3, 1]>, fillcolor="#e58139aa"] ;
54 -> 56 ;
57 [label=<gini = 0.0<br/>samples = 1<br/>value = [0, 1]>, fillcolor="#399de5ff"] ;
56 -> 57 ;
58 [label=<gini = 0.0<br/>samples = 3<br/>value = [3, 0]>, fillcolor="#e58139ff"] ;
56 -> 58 ;
59 [label=<gini = 0.0<br/>samples = 1<br/>value = [0, 1]>, fillcolor="#399de5ff"] ;
53 -> 59 ;
60 [label=<X<SUB>123</SUB> &le; 0.726<br/>gini = 0.5<br/>samples = 12<br/>value = [6, 6]>, fillcolor="#e5813900"] ;
52 -> 60 ;
61 [label=<X<SUB>0</SUB> &le; 42.5<br/>gini = 0.48<br/>samples = 10<br/>value = [6, 4]>, fillcolor="#e5813955"] ;
60 -> 61 ;
62 [label=<gini = 0.0<br/>samples = 2<br/>value = [0, 2]>, fillcolor="#399de5ff"] ;
61 -> 62 ;
63 [label=<X<SUB>122</SUB> &le; 0.391<br/>gini = 0.375<br/>samples = 8<br/>value = [6, 2]>, fillcolor="#e58139aa"] ;
61 -> 63 ;
64 [label=<gini = 0.0<br/>samples = 1<br/>value = [0, 1]>, fillcolor="#399de5ff"] ;
63 -> 64 ;
65 [label=<X<SUB>123</SUB> &le; 0.653<br/>gini = 0.245<br/>samples = 7<br/>value = [6, 1]>, fillcolor="#e58139d4"] ;
63 -> 65 ;
66 [label=<gini = 0.0<br/>samples = 3<br/>value = [3, 0]>, fillcolor="#e58139ff"] ;
65 -> 66 ;
67 [label=<X<SUB>123</SUB> &le; 0.675<br/>gini = 0.375<br/>samples = 4<br/>value = [3, 1]>, fillcolor="#e58139aa"] ;
65 -> 67 ;
68 [label=<gini = 0.0<br/>samples = 1<br/>value = [0, 1]>, fillcolor="#399de5ff"] ;
67 -> 68 ;
69 [label=<gini = 0.0<br/>samples = 3<br/>value = [3, 0]>, fillcolor="#e58139ff"] ;
67 -> 69 ;
70 [label=<gini = 0.0<br/>samples = 2<br/>value = [0, 2]>, fillcolor="#399de5ff"] ;
60 -> 70 ;
71 [label=<gini = 0.0<br/>samples = 6<br/>value = [0, 6]>, fillcolor="#399de5ff"] ;
21 -> 71 ;
72 [label=<X<SUB>123</SUB> &le; 0.898<br/>gini = 0.391<br/>samples = 15<br/>value = [11, 4]>, fillcolor="#e58139a2"] ;
20 -> 72 ;
73 [label=<gini = 0.0<br/>samples = 7<br/>value = [7, 0]>, fillcolor="#e58139ff"] ;
72 -> 73 ;
74 [label=<X<SUB>122</SUB> &le; 0.498<br/>gini = 0.5<br/>samples = 8<br/>value = [4, 4]>, fillcolor="#e5813900"] ;
72 -> 74 ;
75 [label=<gini = 0.0<br/>samples = 2<br/>value = [0, 2]>, fillcolor="#399de5ff"] ;
74 -> 75 ;
76 [label=<X<SUB>0</SUB> &le; 45.0<br/>gini = 0.444<br/>samples = 6<br/>value = [4, 2]>, fillcolor="#e581397f"] ;
74 -> 76 ;
77 [label=<X<SUB>123</SUB> &le; 0.997<br/>gini = 0.32<br/>samples = 5<br/>value = [4, 1]>, fillcolor="#e58139bf"] ;
76 -> 77 ;
78 [label=<gini = 0.0<br/>samples = 4<br/>value = [4, 0]>, fillcolor="#e58139ff"] ;
77 -> 78 ;
79 [label=<gini = 0.0<br/>samples = 1<br/>value = [0, 1]>, fillcolor="#399de5ff"] ;
77 -> 79 ;
80 [label=<gini = 0.0<br/>samples = 1<br/>value = [0, 1]>, fillcolor="#399de5ff"] ;
76 -> 80 ;
81 [label=<X<SUB>114</SUB> &le; 0.133<br/>gini = 0.307<br/>samples = 333<br/>value = [270, 63]>, fillcolor="#e58139c4"] ;
3 -> 81 ;
82 [label=<X<SUB>117</SUB> &le; 0.241<br/>gini = 0.27<br/>samples = 317<br/>value = [266, 51]>, fillcolor="#e58139ce"] ;
81 -> 82 ;
83 [label=<X<SUB>85</SUB> &le; 0.0<br/>gini = 0.263<br/>samples = 315<br/>value = [266, 49]>, fillcolor="#e58139d0"] ;
82 -> 83 ;
84 [label=<X<SUB>0</SUB> &le; 256.0<br/>gini = 0.255<br/>samples = 313<br/>value = [266, 47]>, fillcolor="#e58139d2"] ;
83 -> 84 ;
85 [label=<X<SUB>122</SUB> &le; 0.009<br/>gini = 0.306<br/>samples = 228<br/>value = [185, 43]>, fillcolor="#e58139c4"] ;
84 -> 85 ;
86 [label=<gini = 0.0<br/>samples = 2<br/>value = [0, 2]>, fillcolor="#399de5ff"] ;
85 -> 86 ;
87 [label=<X<SUB>123</SUB> &le; 0.422<br/>gini = 0.297<br/>samples = 226<br/>value = [185, 41]>, fillcolor="#e58139c6"] ;
85 -> 87 ;
88 [label=<X<SUB>0</SUB> &le; 59.0<br/>gini = 0.196<br/>samples = 100<br/>value = [89, 11]>, fillcolor="#e58139df"] ;
87 -> 88 ;
89 [label=<gini = 0.0<br/>samples = 1<br/>value = [0, 1]>, fillcolor="#399de5ff"] ;
88 -> 89 ;
90 [label=<X<SUB>122</SUB> &le; 0.101<br/>gini = 0.182<br/>samples = 99<br/>value = [89, 10]>, fillcolor="#e58139e2"] ;
88 -> 90 ;
91 [label=<X<SUB>123</SUB> &le; 0.075<br/>gini = 0.463<br/>samples = 11<br/>value = [7, 4]>, fillcolor="#e581396d"] ;
90 -> 91 ;
92 [label=<gini = 0.0<br/>samples = 1<br/>value = [0, 1]>, fillcolor="#399de5ff"] ;
91 -> 92 ;
93 [label=<X<SUB>0</SUB> &le; 69.0<br/>gini = 0.42<br/>samples = 10<br/>value = [7, 3]>, fillcolor="#e5813992"] ;
91 -> 93 ;
94 [label=<gini = 0.0<br/>samples = 1<br/>value = [0, 1]>, fillcolor="#399de5ff"] ;
93 -> 94 ;
95 [label=<X<SUB>0</SUB> &le; 111.5<br/>gini = 0.346<br/>samples = 9<br/>value = [7, 2]>, fillcolor="#e58139b6"] ;
93 -> 95 ;
96 [label=<gini = 0.0<br/>samples = 4<br/>value = [4, 0]>, fillcolor="#e58139ff"] ;
95 -> 96 ;
97 [label=<X<SUB>123</SUB> &le; 0.268<br/>gini = 0.48<br/>samples = 5<br/>value = [3, 2]>, fillcolor="#e5813955"] ;
95 -> 97 ;
98 [label=<X<SUB>122</SUB> &le; 0.062<br/>gini = 0.375<br/>samples = 4<br/>value = [3, 1]>, fillcolor="#e58139aa"] ;
97 -> 98 ;
99 [label=<gini = 0.0<br/>samples = 2<br/>value = [2, 0]>, fillcolor="#e58139ff"] ;
98 -> 99 ;
100 [label=<X<SUB>123</SUB> &le; 0.111<br/>gini = 0.5<br/>samples = 2<br/>value = [1, 1]>, fillcolor="#e5813900"] ;
98 -> 100 ;
101 [label=<gini = 0.0<br/>samples = 1<br/>value = [1, 0]>, fillcolor="#e58139ff"] ;
100 -> 101 ;
102 [label=<gini = 0.0<br/>samples = 1<br/>value = [0, 1]>, fillcolor="#399de5ff"] ;
100 -> 102 ;
103 [label=<gini = 0.0<br/>samples = 1<br/>value = [0, 1]>, fillcolor="#399de5ff"] ;
97 -> 103 ;
104 [label=<X<SUB>123</SUB> &le; 0.264<br/>gini = 0.127<br/>samples = 88<br/>value = [82, 6]>, fillcolor="#e58139ec"] ;
90 -> 104 ;
105 [label=<X<SUB>123</SUB> &le; 0.247<br/>gini = 0.191<br/>samples = 56<br/>value = [50, 6]>, fillcolor="#e58139e0"] ;
104 -> 105 ;
106 [label=<X<SUB>122</SUB> &le; 0.757<br/>gini = 0.165<br/>samples = 55<br/>value = [50, 5]>, fillcolor="#e58139e6"] ;
105 -> 106 ;
107 [label=<X<SUB>123</SUB> &le; 0.082<br/>gini = 0.095<br/>samples = 40<br/>value = [38, 2]>, fillcolor="#e58139f2"] ;
106 -> 107 ;
108 [label=<X<SUB>0</SUB> &le; 68.5<br/>gini = 0.26<br/>samples = 13<br/>value = [11, 2]>, fillcolor="#e58139d1"] ;
107 -> 108 ;
109 [label=<gini = 0.0<br/>samples = 1<br/>value = [0, 1]>, fillcolor="#399de5ff"] ;
108 -> 109 ;
110 [label=<X<SUB>123</SUB> &le; 0.08<br/>gini = 0.153<br/>samples = 12<br/>value = [11, 1]>, fillcolor="#e58139e8"] ;
108 -> 110 ;
111 [label=<gini = 0.0<br/>samples = 11<br/>value = [11, 0]>, fillcolor="#e58139ff"] ;
110 -> 111 ;
112 [label=<gini = 0.0<br/>samples = 1<br/>value = [0, 1]>, fillcolor="#399de5ff"] ;
110 -> 112 ;
113 [label=<gini = 0.0<br/>samples = 27<br/>value = [27, 0]>, fillcolor="#e58139ff"] ;
107 -> 113 ;
114 [label=<X<SUB>122</SUB> &le; 0.857<br/>gini = 0.32<br/>samples = 15<br/>value = [12, 3]>, fillcolor="#e58139bf"] ;
106 -> 114 ;
115 [label=<X<SUB>0</SUB> &le; 185.5<br/>gini = 0.375<br/>samples = 4<br/>value = [1, 3]>, fillcolor="#399de5aa"] ;
114 -> 115 ;
116 [label=<gini = 0.0<br/>samples = 3<br/>value = [0, 3]>, fillcolor="#399de5ff"] ;
115 -> 116 ;
117 [label=<gini = 0.0<br/>samples = 1<br/>value = [1, 0]>, fillcolor="#e58139ff"] ;
115 -> 117 ;
118 [label=<gini = 0.0<br/>samples = 11<br/>value = [11, 0]>, fillcolor="#e58139ff"] ;
114 -> 118 ;
119 [label=<gini = 0.0<br/>samples = 1<br/>value = [0, 1]>, fillcolor="#399de5ff"] ;
105 -> 119 ;
120 [label=<gini = 0.0<br/>samples = 32<br/>value = [32, 0]>, fillcolor="#e58139ff"] ;
104 -> 120 ;
121 [label=<X<SUB>0</SUB> &le; 67.5<br/>gini = 0.363<br/>samples = 126<br/>value = [96, 30]>, fillcolor="#e58139af"] ;
87 -> 121 ;
122 [label=<gini = 0.0<br/>samples = 17<br/>value = [17, 0]>, fillcolor="#e58139ff"] ;
121 -> 122 ;
123 [label=<X<SUB>123</SUB> &le; 0.494<br/>gini = 0.399<br/>samples = 109<br/>value = [79, 30]>, fillcolor="#e581399e"] ;
121 -> 123 ;
124 [label=<X<SUB>0</SUB> &le; 187.5<br/>gini = 0.486<br/>samples = 12<br/>value = [5, 7]>, fillcolor="#399de549"] ;
123 -> 124 ;
125 [label=<X<SUB>122</SUB> &le; 0.26<br/>gini = 0.346<br/>samples = 9<br/>value = [2, 7]>, fillcolor="#399de5b6"] ;
124 -> 125 ;
126 [label=<gini = 0.0<br/>samples = 1<br/>value = [1, 0]>, fillcolor="#e58139ff"] ;
125 -> 126 ;
127 [label=<X<SUB>122</SUB> &le; 0.969<br/>gini = 0.219<br/>samples = 8<br/>value = [1, 7]>, fillcolor="#399de5db"] ;
125 -> 127 ;
128 [label=<gini = 0.0<br/>samples = 7<br/>value = [0, 7]>, fillcolor="#399de5ff"] ;
127 -> 128 ;
129 [label=<gini = 0.0<br/>samples = 1<br/>value = [1, 0]>, fillcolor="#e58139ff"] ;
127 -> 129 ;
130 [label=<gini = 0.0<br/>samples = 3<br/>value = [3, 0]>, fillcolor="#e58139ff"] ;
124 -> 130 ;
131 [label=<X<SUB>0</SUB> &le; 238.5<br/>gini = 0.362<br/>samples = 97<br/>value = [74, 23]>, fillcolor="#e58139b0"] ;
123 -> 131 ;
132 [label=<X<SUB>122</SUB> &le; 0.539<br/>gini = 0.344<br/>samples = 95<br/>value = [74, 21]>, fillcolor="#e58139b7"] ;
131 -> 132 ;
133 [label=<X<SUB>0</SUB> &le; 127.5<br/>gini = 0.411<br/>samples = 52<br/>value = [37, 15]>, fillcolor="#e5813998"] ;
132 -> 133 ;
134 [label=<X<SUB>0</SUB> &le; 80.0<br/>gini = 0.332<br/>samples = 38<br/>value = [30, 8]>, fillcolor="#e58139bb"] ;
133 -> 134 ;
135 [label=<X<SUB>123</SUB> &le; 0.765<br/>gini = 0.49<br/>samples = 7<br/>value = [3, 4]>, fillcolor="#399de540"] ;
134 -> 135 ;
136 [label=<X<SUB>123</SUB> &le; 0.634<br/>gini = 0.375<br/>samples = 4<br/>value = [3, 1]>, fillcolor="#e58139aa"] ;
135 -> 136 ;
137 [label=<gini = 0.0<br/>samples = 1<br/>value = [0, 1]>, fillcolor="#399de5ff"] ;
136 -> 137 ;
138 [label=<gini = 0.0<br/>samples = 3<br/>value = [3, 0]>, fillcolor="#e58139ff"] ;
136 -> 138 ;
139 [label=<gini = 0.0<br/>samples = 3<br/>value = [0, 3]>, fillcolor="#399de5ff"] ;
135 -> 139 ;
140 [label=<X<SUB>123</SUB> &le; 0.767<br/>gini = 0.225<br/>samples = 31<br/>value = [27, 4]>, fillcolor="#e58139d9"] ;
134 -> 140 ;
141 [label=<X<SUB>123</SUB> &le; 0.742<br/>gini = 0.391<br/>samples = 15<br/>value = [11, 4]>, fillcolor="#e58139a2"] ;
140 -> 141 ;
142 [label=<X<SUB>122</SUB> &le; 0.106<br/>gini = 0.165<br/>samples = 11<br/>value = [10, 1]>, fillcolor="#e58139e6"] ;
141 -> 142 ;
143 [label=<gini = 0.0<br/>samples = 1<br/>value = [0, 1]>, fillcolor="#399de5ff"] ;
142 -> 143 ;
144 [label=<gini = 0.0<br/>samples = 10<br/>value = [10, 0]>, fillcolor="#e58139ff"] ;
142 -> 144 ;
145 [label=<X<SUB>122</SUB> &le; 0.39<br/>gini = 0.375<br/>samples = 4<br/>value = [1, 3]>, fillcolor="#399de5aa"] ;
141 -> 145 ;
146 [label=<gini = 0.0<br/>samples = 3<br/>value = [0, 3]>, fillcolor="#399de5ff"] ;
145 -> 146 ;
147 [label=<gini = 0.0<br/>samples = 1<br/>value = [1, 0]>, fillcolor="#e58139ff"] ;
145 -> 147 ;
148 [label=<gini = 0.0<br/>samples = 16<br/>value = [16, 0]>, fillcolor="#e58139ff"] ;
140 -> 148 ;
149 [label=<X<SUB>122</SUB> &le; 0.26<br/>gini = 0.5<br/>samples = 14<br/>value = [7, 7]>, fillcolor="#e5813900"] ;
133 -> 149 ;
150 [label=<X<SUB>122</SUB> &le; 0.142<br/>gini = 0.32<br/>samples = 5<br/>value = [4, 1]>, fillcolor="#e58139bf"] ;
149 -> 150 ;
151 [label=<gini = 0.0<br/>samples = 1<br/>value = [0, 1]>, fillcolor="#399de5ff"] ;
150 -> 151 ;
152 [label=<gini = 0.0<br/>samples = 4<br/>value = [4, 0]>, fillcolor="#e58139ff"] ;
150 -> 152 ;
153 [label=<X<SUB>122</SUB> &le; 0.325<br/>gini = 0.444<br/>samples = 9<br/>value = [3, 6]>, fillcolor="#399de57f"] ;
149 -> 153 ;
154 [label=<gini = 0.0<br/>samples = 3<br/>value = [0, 3]>, fillcolor="#399de5ff"] ;
153 -> 154 ;
155 [label=<X<SUB>122</SUB> &le; 0.423<br/>gini = 0.5<br/>samples = 6<br/>value = [3, 3]>, fillcolor="#e5813900"] ;
153 -> 155 ;
156 [label=<gini = 0.0<br/>samples = 2<br/>value = [2, 0]>, fillcolor="#e58139ff"] ;
155 -> 156 ;
157 [label=<X<SUB>123</SUB> &le; 0.932<br/>gini = 0.375<br/>samples = 4<br/>value = [1, 3]>, fillcolor="#399de5aa"] ;
155 -> 157 ;
158 [label=<gini = 0.0<br/>samples = 3<br/>value = [0, 3]>, fillcolor="#399de5ff"] ;
157 -> 158 ;
159 [label=<gini = 0.0<br/>samples = 1<br/>value = [1, 0]>, fillcolor="#e58139ff"] ;
157 -> 159 ;
160 [label=<X<SUB>0</SUB> &le; 211.0<br/>gini = 0.24<br/>samples = 43<br/>value = [37, 6]>, fillcolor="#e58139d6"] ;
132 -> 160 ;
161 [label=<X<SUB>122</SUB> &le; 0.973<br/>gini = 0.214<br/>samples = 41<br/>value = [36, 5]>, fillcolor="#e58139dc"] ;
160 -> 161 ;
162 [label=<X<SUB>123</SUB> &le; 0.845<br/>gini = 0.184<br/>samples = 39<br/>value = [35, 4]>, fillcolor="#e58139e2"] ;
161 -> 162 ;
163 [label=<X<SUB>122</SUB> &le; 0.606<br/>gini = 0.077<br/>samples = 25<br/>value = [24, 1]>, fillcolor="#e58139f4"] ;
162 -> 163 ;
164 [label=<X<SUB>122</SUB> &le; 0.59<br/>gini = 0.198<br/>samples = 9<br/>value = [8, 1]>, fillcolor="#e58139df"] ;
163 -> 164 ;
165 [label=<gini = 0.0<br/>samples = 8<br/>value = [8, 0]>, fillcolor="#e58139ff"] ;
164 -> 165 ;
166 [label=<gini = 0.0<br/>samples = 1<br/>value = [0, 1]>, fillcolor="#399de5ff"] ;
164 -> 166 ;
167 [label=<gini = 0.0<br/>samples = 16<br/>value = [16, 0]>, fillcolor="#e58139ff"] ;
163 -> 167 ;
168 [label=<X<SUB>123</SUB> &le; 0.854<br/>gini = 0.337<br/>samples = 14<br/>value = [11, 3]>, fillcolor="#e58139b9"] ;
162 -> 168 ;
169 [label=<gini = 0.0<br/>samples = 1<br/>value = [0, 1]>, fillcolor="#399de5ff"] ;
168 -> 169 ;
170 [label=<X<SUB>0</SUB> &le; 75.0<br/>gini = 0.26<br/>samples = 13<br/>value = [11, 2]>, fillcolor="#e58139d1"] ;
168 -> 170 ;
171 [label=<gini = 0.0<br/>samples = 1<br/>value = [0, 1]>, fillcolor="#399de5ff"] ;
170 -> 171 ;
172 [label=<X<SUB>122</SUB> &le; 0.888<br/>gini = 0.153<br/>samples = 12<br/>value = [11, 1]>, fillcolor="#e58139e8"] ;
170 -> 172 ;
173 [label=<gini = 0.0<br/>samples = 9<br/>value = [9, 0]>, fillcolor="#e58139ff"] ;
172 -> 173 ;
174 [label=<X<SUB>123</SUB> &le; 0.95<br/>gini = 0.444<br/>samples = 3<br/>value = [2, 1]>, fillcolor="#e581397f"] ;
172 -> 174 ;
175 [label=<gini = 0.0<br/>samples = 1<br/>value = [0, 1]>, fillcolor="#399de5ff"] ;
174 -> 175 ;
176 [label=<gini = 0.0<br/>samples = 2<br/>value = [2, 0]>, fillcolor="#e58139ff"] ;
174 -> 176 ;
177 [label=<X<SUB>122</SUB> &le; 0.983<br/>gini = 0.5<br/>samples = 2<br/>value = [1, 1]>, fillcolor="#e5813900"] ;
161 -> 177 ;
178 [label=<gini = 0.0<br/>samples = 1<br/>value = [0, 1]>, fillcolor="#399de5ff"] ;
177 -> 178 ;
179 [label=<gini = 0.0<br/>samples = 1<br/>value = [1, 0]>, fillcolor="#e58139ff"] ;
177 -> 179 ;
180 [label=<X<SUB>123</SUB> &le; 0.791<br/>gini = 0.5<br/>samples = 2<br/>value = [1, 1]>, fillcolor="#e5813900"] ;
160 -> 180 ;
181 [label=<gini = 0.0<br/>samples = 1<br/>value = [0, 1]>, fillcolor="#399de5ff"] ;
180 -> 181 ;
182 [label=<gini = 0.0<br/>samples = 1<br/>value = [1, 0]>, fillcolor="#e58139ff"] ;
180 -> 182 ;
183 [label=<gini = 0.0<br/>samples = 2<br/>value = [0, 2]>, fillcolor="#399de5ff"] ;
131 -> 183 ;
184 [label=<X<SUB>24</SUB> &le; 0.03<br/>gini = 0.09<br/>samples = 85<br/>value = [81, 4]>, fillcolor="#e58139f2"] ;
84 -> 184 ;
185 [label=<X<SUB>12</SUB> &le; 758.13<br/>gini = 0.069<br/>samples = 84<br/>value = [81, 3]>, fillcolor="#e58139f6"] ;
184 -> 185 ;
186 [label=<X<SUB>0</SUB> &le; 1717.5<br/>gini = 0.048<br/>samples = 81<br/>value = [79, 2]>, fillcolor="#e58139f9"] ;
185 -> 186 ;
187 [label=<X<SUB>0</SUB> &le; 359.0<br/>gini = 0.025<br/>samples = 78<br/>value = [77, 1]>, fillcolor="#e58139fc"] ;
186 -> 187 ;
188 [label=<X<SUB>0</SUB> &le; 350.5<br/>gini = 0.124<br/>samples = 15<br/>value = [14, 1]>, fillcolor="#e58139ed"] ;
187 -> 188 ;
189 [label=<gini = 0.0<br/>samples = 13<br/>value = [13, 0]>, fillcolor="#e58139ff"] ;
188 -> 189 ;
190 [label=<X<SUB>123</SUB> &le; 0.777<br/>gini = 0.5<br/>samples = 2<br/>value = [1, 1]>, fillcolor="#e5813900"] ;
188 -> 190 ;
191 [label=<gini = 0.0<br/>samples = 1<br/>value = [0, 1]>, fillcolor="#399de5ff"] ;
190 -> 191 ;
192 [label=<gini = 0.0<br/>samples = 1<br/>value = [1, 0]>, fillcolor="#e58139ff"] ;
190 -> 192 ;
193 [label=<gini = 0.0<br/>samples = 63<br/>value = [63, 0]>, fillcolor="#e58139ff"] ;
187 -> 193 ;
194 [label=<X<SUB>122</SUB> &le; 0.541<br/>gini = 0.444<br/>samples = 3<br/>value = [2, 1]>, fillcolor="#e581397f"] ;
186 -> 194 ;
195 [label=<gini = 0.0<br/>samples = 1<br/>value = [0, 1]>, fillcolor="#399de5ff"] ;
194 -> 195 ;
196 [label=<gini = 0.0<br/>samples = 2<br/>value = [2, 0]>, fillcolor="#e58139ff"] ;
194 -> 196 ;
197 [label=<X<SUB>84</SUB> &le; 0.0<br/>gini = 0.444<br/>samples = 3<br/>value = [2, 1]>, fillcolor="#e581397f"] ;
185 -> 197 ;
198 [label=<gini = 0.0<br/>samples = 1<br/>value = [0, 1]>, fillcolor="#399de5ff"] ;
197 -> 198 ;
199 [label=<gini = 0.0<br/>samples = 2<br/>value = [2, 0]>, fillcolor="#e58139ff"] ;
197 -> 199 ;
200 [label=<gini = 0.0<br/>samples = 1<br/>value = [0, 1]>, fillcolor="#399de5ff"] ;
184 -> 200 ;
201 [label=<gini = 0.0<br/>samples = 2<br/>value = [0, 2]>, fillcolor="#399de5ff"] ;
83 -> 201 ;
202 [label=<gini = 0.0<br/>samples = 2<br/>value = [0, 2]>, fillcolor="#399de5ff"] ;
82 -> 202 ;
203 [label=<X<SUB>103</SUB> &le; 0.457<br/>gini = 0.375<br/>samples = 16<br/>value = [4, 12]>, fillcolor="#399de5aa"] ;
81 -> 203 ;
204 [label=<X<SUB>117</SUB> &le; 0.103<br/>gini = 0.142<br/>samples = 13<br/>value = [1, 12]>, fillcolor="#399de5ea"] ;
203 -> 204 ;
205 [label=<gini = 0.0<br/>samples = 1<br/>value = [1, 0]>, fillcolor="#e58139ff"] ;
204 -> 205 ;
206 [label=<gini = 0.0<br/>samples = 12<br/>value = [0, 12]>, fillcolor="#399de5ff"] ;
204 -> 206 ;
207 [label=<gini = 0.0<br/>samples = 3<br/>value = [3, 0]>, fillcolor="#e58139ff"] ;
203 -> 207 ;
208 [label=<X<SUB>89</SUB> &le; 0.293<br/>gini = 0.267<br/>samples = 5383<br/>value = [854, 4529]>, fillcolor="#399de5cf"] ;
2 -> 208 ;
209 [label=<X<SUB>91</SUB> &le; 0.036<br/>gini = 0.222<br/>samples = 5086<br/>value = [646, 4440]>, fillcolor="#399de5da"] ;
208 -> 209 ;
210 [label=<X<SUB>6</SUB> &le; 0.01<br/>gini = 0.317<br/>samples = 2504<br/>value = [495, 2009]>, fillcolor="#399de5c0"] ;
209 -> 210 ;
211 [label=<X<SUB>57</SUB> &le; 0.227<br/>gini = 0.264<br/>samples = 2011<br/>value = [314, 1697]>, fillcolor="#399de5d0"] ;
210 -> 211 ;
212 [label=<X<SUB>5</SUB> &le; 0.013<br/>gini = 0.453<br/>samples = 49<br/>value = [32, 17]>, fillcolor="#e5813978"] ;
211 -> 212 ;
213 [label=<X<SUB>15</SUB> &le; 84.033<br/>gini = 0.264<br/>samples = 32<br/>value = [27, 5]>, fillcolor="#e58139d0"] ;
212 -> 213 ;
214 [label=<X<SUB>22</SUB> &le; 0.025<br/>gini = 0.32<br/>samples = 5<br/>value = [1, 4]>, fillcolor="#399de5bf"] ;
213 -> 214 ;
215 [label=<gini = 0.0<br/>samples = 4<br/>value = [0, 4]>, fillcolor="#399de5ff"] ;
214 -> 215 ;
216 [label=<gini = 0.0<br/>samples = 1<br/>value = [1, 0]>, fillcolor="#e58139ff"] ;
214 -> 216 ;
217 [label=<X<SUB>107</SUB> &le; 0.116<br/>gini = 0.071<br/>samples = 27<br/>value = [26, 1]>, fillcolor="#e58139f5"] ;
213 -> 217 ;
218 [label=<gini = 0.0<br/>samples = 26<br/>value = [26, 0]>, fillcolor="#e58139ff"] ;
217 -> 218 ;
219 [label=<gini = 0.0<br/>samples = 1<br/>value = [0, 1]>, fillcolor="#399de5ff"] ;
217 -> 219 ;
220 [label=<X<SUB>45</SUB> &le; 0.003<br/>gini = 0.415<br/>samples = 17<br/>value = [5, 12]>, fillcolor="#399de595"] ;
212 -> 220 ;
221 [label=<gini = 0.0<br/>samples = 12<br/>value = [0, 12]>, fillcolor="#399de5ff"] ;
220 -> 221 ;
222 [label=<gini = 0.0<br/>samples = 5<br/>value = [5, 0]>, fillcolor="#e58139ff"] ;
220 -> 222 ;
223 [label=<X<SUB>5</SUB> &le; 0.015<br/>gini = 0.246<br/>samples = 1962<br/>value = [282, 1680]>, fillcolor="#399de5d4"] ;
211 -> 223 ;
224 [label=<X<SUB>89</SUB> &le; 0.081<br/>gini = 0.333<br/>samples = 947<br/>value = [200, 747]>, fillcolor="#399de5bb"] ;
223 -> 224 ;
225 [label=<X<SUB>102</SUB> &le; 0.587<br/>gini = 0.394<br/>samples = 708<br/>value = [191, 517]>, fillcolor="#399de5a1"] ;
224 -> 225 ;
226 [label=<X<SUB>101</SUB> &le; 0.4<br/>gini = 0.366<br/>samples = 664<br/>value = [160, 504]>, fillcolor="#399de5ae"] ;
225 -> 226 ;
227 [label=<X<SUB>6</SUB> &le; 0.008<br/>gini = 0.428<br/>samples = 481<br/>value = [149, 332]>, fillcolor="#399de58d"] ;
226 -> 227 ;
228 [label=<X<SUB>58</SUB> &le; 0.15<br/>gini = 0.353<br/>samples = 332<br/>value = [76, 256]>, fillcolor="#399de5b3"] ;
227 -> 228 ;
229 [label=<X<SUB>4</SUB> &le; 31.935<br/>gini = 0.246<br/>samples = 216<br/>value = [31, 185]>, fillcolor="#399de5d4"] ;
228 -> 229 ;
230 [label=<X<SUB>12</SUB> &le; 2892.913<br/>gini = 0.215<br/>samples = 204<br/>value = [25, 179]>, fillcolor="#399de5db"] ;
229 -> 230 ;
231 [label=<X<SUB>5</SUB> &le; 0.015<br/>gini = 0.191<br/>samples = 196<br/>value = [21, 175]>, fillcolor="#399de5e0"] ;
230 -> 231 ;
232 [label=<X<SUB>79</SUB> &le; 0.01<br/>gini = 0.178<br/>samples = 193<br/>value = [19, 174]>, fillcolor="#399de5e3"] ;
231 -> 232 ;
233 [label=<X<SUB>100</SUB> &le; 0.073<br/>gini = 0.163<br/>samples = 190<br/>value = [17, 173]>, fillcolor="#399de5e6"] ;
232 -> 233 ;
234 [label=<X<SUB>16</SUB> &le; 69.857<br/>gini = 0.087<br/>samples = 132<br/>value = [6, 126]>, fillcolor="#399de5f3"] ;
233 -> 234 ;
235 [label=<X<SUB>105</SUB> &le; 0.117<br/>gini = 0.073<br/>samples = 131<br/>value = [5, 126]>, fillcolor="#399de5f5"] ;
234 -> 235 ;
236 [label=<X<SUB>18</SUB> &le; 0.303<br/>gini = 0.06<br/>samples = 130<br/>value = [4, 126]>, fillcolor="#399de5f7"] ;
235 -> 236 ;
237 [label=<X<SUB>98</SUB> &le; 0.221<br/>gini = 0.045<br/>samples = 129<br/>value = [3, 126]>, fillcolor="#399de5f9"] ;
236 -> 237 ;
238 [label=<X<SUB>93</SUB> &le; 0.315<br/>gini = 0.017<br/>samples = 120<br/>value = [1, 119]>, fillcolor="#399de5fd"] ;
237 -> 238 ;
239 [label=<gini = 0.0<br/>samples = 116<br/>value = [0, 116]>, fillcolor="#399de5ff"] ;
238 -> 239 ;
240 [label=<X<SUB>72</SUB> &le; 0.0<br/>gini = 0.375<br/>samples = 4<br/>value = [1, 3]>, fillcolor="#399de5aa"] ;
238 -> 240 ;
241 [label=<gini = 0.0<br/>samples = 1<br/>value = [1, 0]>, fillcolor="#e58139ff"] ;
240 -> 241 ;
242 [label=<gini = 0.0<br/>samples = 3<br/>value = [0, 3]>, fillcolor="#399de5ff"] ;
240 -> 242 ;
243 [label=<X<SUB>75</SUB> &le; 0.0<br/>gini = 0.346<br/>samples = 9<br/>value = [2, 7]>, fillcolor="#399de5b6"] ;
237 -> 243 ;
244 [label=<gini = 0.0<br/>samples = 2<br/>value = [2, 0]>, fillcolor="#e58139ff"] ;
243 -> 244 ;
245 [label=<gini = 0.0<br/>samples = 7<br/>value = [0, 7]>, fillcolor="#399de5ff"] ;
243 -> 245 ;
246 [label=<gini = 0.0<br/>samples = 1<br/>value = [1, 0]>, fillcolor="#e58139ff"] ;
236 -> 246 ;
247 [label=<gini = 0.0<br/>samples = 1<br/>value = [1, 0]>, fillcolor="#e58139ff"] ;
235 -> 247 ;
248 [label=<gini = 0.0<br/>samples = 1<br/>value = [1, 0]>, fillcolor="#e58139ff"] ;
234 -> 248 ;
249 [label=<X<SUB>100</SUB> &le; 0.083<br/>gini = 0.307<br/>samples = 58<br/>value = [11, 47]>, fillcolor="#399de5c3"] ;
233 -> 249 ;
250 [label=<X<SUB>58</SUB> &le; 0.07<br/>gini = 0.408<br/>samples = 7<br/>value = [5, 2]>, fillcolor="#e5813999"] ;
249 -> 250 ;
251 [label=<gini = 0.0<br/>samples = 2<br/>value = [0, 2]>, fillcolor="#399de5ff"] ;
250 -> 251 ;
252 [label=<gini = 0.0<br/>samples = 5<br/>value = [5, 0]>, fillcolor="#e58139ff"] ;
250 -> 252 ;
253 [label=<X<SUB>58</SUB> &le; 0.049<br/>gini = 0.208<br/>samples = 51<br/>value = [6, 45]>, fillcolor="#399de5dd"] ;
249 -> 253 ;
254 [label=<X<SUB>12</SUB> &le; 2420.076<br/>gini = 0.5<br/>samples = 8<br/>value = [4, 4]>, fillcolor="#e5813900"] ;
253 -> 254 ;
255 [label=<gini = 0.0<br/>samples = 4<br/>value = [0, 4]>, fillcolor="#399de5ff"] ;
254 -> 255 ;
256 [label=<gini = 0.0<br/>samples = 4<br/>value = [4, 0]>, fillcolor="#e58139ff"] ;
254 -> 256 ;
257 [label=<X<SUB>12</SUB> &le; 1545.827<br/>gini = 0.089<br/>samples = 43<br/>value = [2, 41]>, fillcolor="#399de5f3"] ;
253 -> 257 ;
258 [label=<X<SUB>64</SUB> &le; 0.002<br/>gini = 0.5<br/>samples = 2<br/>value = [1, 1]>, fillcolor="#e5813900"] ;
257 -> 258 ;
259 [label=<gini = 0.0<br/>samples = 1<br/>value = [0, 1]>, fillcolor="#399de5ff"] ;
258 -> 259 ;
260 [label=<gini = 0.0<br/>samples = 1<br/>value = [1, 0]>, fillcolor="#e58139ff"] ;
258 -> 260 ;
261 [label=<X<SUB>122</SUB> &le; 0.049<br/>gini = 0.048<br/>samples = 41<br/>value = [1, 40]>, fillcolor="#399de5f9"] ;
257 -> 261 ;
262 [label=<X<SUB>49</SUB> &le; 0.0<br/>gini = 0.5<br/>samples = 2<br/>value = [1, 1]>, fillcolor="#e5813900"] ;
261 -> 262 ;
263 [label=<gini = 0.0<br/>samples = 1<br/>value = [0, 1]>, fillcolor="#399de5ff"] ;
262 -> 263 ;
264 [label=<gini = 0.0<br/>samples = 1<br/>value = [1, 0]>, fillcolor="#e58139ff"] ;
262 -> 264 ;
265 [label=<gini = 0.0<br/>samples = 39<br/>value = [0, 39]>, fillcolor="#399de5ff"] ;
261 -> 265 ;
266 [label=<X<SUB>108</SUB> &le; 0.041<br/>gini = 0.444<br/>samples = 3<br/>value = [2, 1]>, fillcolor="#e581397f"] ;
232 -> 266 ;
267 [label=<gini = 0.0<br/>samples = 1<br/>value = [0, 1]>, fillcolor="#399de5ff"] ;
266 -> 267 ;
268 [label=<gini = 0.0<br/>samples = 2<br/>value = [2, 0]>, fillcolor="#e58139ff"] ;
266 -> 268 ;
269 [label=<X<SUB>6</SUB> &le; 0.007<br/>gini = 0.444<br/>samples = 3<br/>value = [2, 1]>, fillcolor="#e581397f"] ;
231 -> 269 ;
270 [label=<gini = 0.0<br/>samples = 2<br/>value = [2, 0]>, fillcolor="#e58139ff"] ;
269 -> 270 ;
271 [label=<gini = 0.0<br/>samples = 1<br/>value = [0, 1]>, fillcolor="#399de5ff"] ;
269 -> 271 ;
272 [label=<X<SUB>62</SUB> &le; 0.019<br/>gini = 0.5<br/>samples = 8<br/>value = [4, 4]>, fillcolor="#e5813900"] ;
230 -> 272 ;
273 [label=<X<SUB>10</SUB> &le; 1443.562<br/>gini = 0.32<br/>samples = 5<br/>value = [1, 4]>, fillcolor="#399de5bf"] ;
272 -> 273 ;
274 [label=<gini = 0.0<br/>samples = 4<br/>value = [0, 4]>, fillcolor="#399de5ff"] ;
273 -> 274 ;
275 [label=<gini = 0.0<br/>samples = 1<br/>value = [1, 0]>, fillcolor="#e58139ff"] ;
273 -> 275 ;
276 [label=<gini = 0.0<br/>samples = 3<br/>value = [3, 0]>, fillcolor="#e58139ff"] ;
272 -> 276 ;
277 [label=<X<SUB>118</SUB> &le; 0.061<br/>gini = 0.5<br/>samples = 12<br/>value = [6, 6]>, fillcolor="#e5813900"] ;
229 -> 277 ;
278 [label=<gini = 0.0<br/>samples = 6<br/>value = [0, 6]>, fillcolor="#399de5ff"] ;
277 -> 278 ;
279 [label=<gini = 0.0<br/>samples = 6<br/>value = [6, 0]>, fillcolor="#e58139ff"] ;
277 -> 279 ;
280 [label=<X<SUB>117</SUB> &le; 0.034<br/>gini = 0.475<br/>samples = 116<br/>value = [45, 71]>, fillcolor="#399de55d"] ;
228 -> 280 ;
281 [label=<X<SUB>18</SUB> &le; 0.146<br/>gini = 0.273<br/>samples = 49<br/>value = [8, 41]>, fillcolor="#399de5cd"] ;
280 -> 281 ;
282 [label=<X<SUB>76</SUB> &le; 0.001<br/>gini = 0.165<br/>samples = 44<br/>value = [4, 40]>, fillcolor="#399de5e6"] ;
281 -> 282 ;
283 [label=<gini = 0.0<br/>samples = 34<br/>value = [0, 34]>, fillcolor="#399de5ff"] ;
282 -> 283 ;
284 [label=<X<SUB>78</SUB> &le; 0.001<br/>gini = 0.48<br/>samples = 10<br/>value = [4, 6]>, fillcolor="#399de555"] ;
282 -> 284 ;
285 [label=<gini = 0.0<br/>samples = 4<br/>value = [4, 0]>, fillcolor="#e58139ff"] ;
284 -> 285 ;
286 [label=<gini = 0.0<br/>samples = 6<br/>value = [0, 6]>, fillcolor="#399de5ff"] ;
284 -> 286 ;
287 [label=<X<SUB>40</SUB> &le; 0.0<br/>gini = 0.32<br/>samples = 5<br/>value = [4, 1]>, fillcolor="#e58139bf"] ;
281 -> 287 ;
288 [label=<gini = 0.0<br/>samples = 1<br/>value = [0, 1]>, fillcolor="#399de5ff"] ;
287 -> 288 ;
289 [label=<gini = 0.0<br/>samples = 4<br/>value = [4, 0]>, fillcolor="#e58139ff"] ;
287 -> 289 ;
290 [label=<X<SUB>83</SUB> &le; 0.0<br/>gini = 0.495<br/>samples = 67<br/>value = [37, 30]>, fillcolor="#e5813930"] ;
280 -> 290 ;
291 [label=<X<SUB>116</SUB> &le; 0.131<br/>gini = 0.387<br/>samples = 42<br/>value = [31, 11]>, fillcolor="#e58139a5"] ;
290 -> 291 ;
292 [label=<X<SUB>5</SUB> &le; 0.014<br/>gini = 0.142<br/>samples = 26<br/>value = [24, 2]>, fillcolor="#e58139ea"] ;
291 -> 292 ;
293 [label=<gini = 0.0<br/>samples = 24<br/>value = [24, 0]>, fillcolor="#e58139ff"] ;
292 -> 293 ;
294 [label=<gini = 0.0<br/>samples = 2<br/>value = [0, 2]>, fillcolor="#399de5ff"] ;
292 -> 294 ;
295 [label=<X<SUB>58</SUB> &le; 0.195<br/>gini = 0.492<br/>samples = 16<br/>value = [7, 9]>, fillcolor="#399de539"] ;
291 -> 295 ;
296 [label=<gini = 0.0<br/>samples = 7<br/>value = [0, 7]>, fillcolor="#399de5ff"] ;
295 -> 296 ;
297 [label=<X<SUB>109</SUB> &le; 0.046<br/>gini = 0.346<br/>samples = 9<br/>value = [7, 2]>, fillcolor="#e58139b6"] ;
295 -> 297 ;
298 [label=<gini = 0.0<br/>samples = 7<br/>value = [7, 0]>, fillcolor="#e58139ff"] ;
297 -> 298 ;
299 [label=<gini = 0.0<br/>samples = 2<br/>value = [0, 2]>, fillcolor="#399de5ff"] ;
297 -> 299 ;
300 [label=<X<SUB>69</SUB> &le; 0.011<br/>gini = 0.365<br/>samples = 25<br/>value = [6, 19]>, fillcolor="#399de5ae"] ;
290 -> 300 ;
301 [label=<X<SUB>75</SUB> &le; 0.005<br/>gini = 0.236<br/>samples = 22<br/>value = [3, 19]>, fillcolor="#399de5d7"] ;
300 -> 301 ;
302 [label=<gini = 0.0<br/>samples = 16<br/>value = [0, 16]>, fillcolor="#399de5ff"] ;
301 -> 302 ;
303 [label=<X<SUB>103</SUB> &le; 0.147<br/>gini = 0.5<br/>samples = 6<br/>value = [3, 3]>, fillcolor="#e5813900"] ;
301 -> 303 ;
304 [label=<gini = 0.0<br/>samples = 3<br/>value = [0, 3]>, fillcolor="#399de5ff"] ;
303 -> 304 ;
305 [label=<gini = 0.0<br/>samples = 3<br/>value = [3, 0]>, fillcolor="#e58139ff"] ;
303 -> 305 ;
306 [label=<gini = 0.0<br/>samples = 3<br/>value = [3, 0]>, fillcolor="#e58139ff"] ;
300 -> 306 ;
307 [label=<X<SUB>103</SUB> &le; 0.056<br/>gini = 0.5<br/>samples = 149<br/>value = [73, 76]>, fillcolor="#399de50a"] ;
227 -> 307 ;
308 [label=<X<SUB>18</SUB> &le; 0.059<br/>gini = 0.404<br/>samples = 64<br/>value = [18, 46]>, fillcolor="#399de59b"] ;
307 -> 308 ;
309 [label=<X<SUB>122</SUB> &le; 0.789<br/>gini = 0.497<br/>samples = 24<br/>value = [13, 11]>, fillcolor="#e5813927"] ;
308 -> 309 ;
310 [label=<X<SUB>16</SUB> &le; 43.383<br/>gini = 0.337<br/>samples = 14<br/>value = [11, 3]>, fillcolor="#e58139b9"] ;
309 -> 310 ;
311 [label=<X<SUB>79</SUB> &le; 0.012<br/>gini = 0.375<br/>samples = 4<br/>value = [1, 3]>, fillcolor="#399de5aa"] ;
310 -> 311 ;
312 [label=<gini = 0.0<br/>samples = 3<br/>value = [0, 3]>, fillcolor="#399de5ff"] ;
311 -> 312 ;
313 [label=<gini = 0.0<br/>samples = 1<br/>value = [1, 0]>, fillcolor="#e58139ff"] ;
311 -> 313 ;
314 [label=<gini = 0.0<br/>samples = 10<br/>value = [10, 0]>, fillcolor="#e58139ff"] ;
310 -> 314 ;
315 [label=<X<SUB>7</SUB> &le; 0.088<br/>gini = 0.32<br/>samples = 10<br/>value = [2, 8]>, fillcolor="#399de5bf"] ;
309 -> 315 ;
316 [label=<X<SUB>12</SUB> &le; 2704.265<br/>gini = 0.444<br/>samples = 3<br/>value = [2, 1]>, fillcolor="#e581397f"] ;
315 -> 316 ;
317 [label=<gini = 0.0<br/>samples = 2<br/>value = [2, 0]>, fillcolor="#e58139ff"] ;
316 -> 317 ;
318 [label=<gini = 0.0<br/>samples = 1<br/>value = [0, 1]>, fillcolor="#399de5ff"] ;
316 -> 318 ;
319 [label=<gini = 0.0<br/>samples = 7<br/>value = [0, 7]>, fillcolor="#399de5ff"] ;
315 -> 319 ;
320 [label=<X<SUB>17</SUB> &le; 0.314<br/>gini = 0.219<br/>samples = 40<br/>value = [5, 35]>, fillcolor="#399de5db"] ;
308 -> 320 ;
321 [label=<X<SUB>12</SUB> &le; 2640.756<br/>gini = 0.48<br/>samples = 5<br/>value = [3, 2]>, fillcolor="#e5813955"] ;
320 -> 321 ;
322 [label=<gini = 0.0<br/>samples = 2<br/>value = [0, 2]>, fillcolor="#399de5ff"] ;
321 -> 322 ;
323 [label=<gini = 0.0<br/>samples = 3<br/>value = [3, 0]>, fillcolor="#e58139ff"] ;
321 -> 323 ;
324 [label=<X<SUB>19</SUB> &le; 0.13<br/>gini = 0.108<br/>samples = 35<br/>value = [2, 33]>, fillcolor="#399de5f0"] ;
320 -> 324 ;
325 [label=<X<SUB>2</SUB> &le; 2.874<br/>gini = 0.057<br/>samples = 34<br/>value = [1, 33]>, fillcolor="#399de5f7"] ;
324 -> 325 ;
326 [label=<gini = 0.0<br/>samples = 32<br/>value = [0, 32]>, fillcolor="#399de5ff"] ;
325 -> 326 ;
327 [label=<X<SUB>27</SUB> &le; 0.008<br/>gini = 0.5<br/>samples = 2<br/>value = [1, 1]>, fillcolor="#e5813900"] ;
325 -> 327 ;
328 [label=<gini = 0.0<br/>samples = 1<br/>value = [0, 1]>, fillcolor="#399de5ff"] ;
327 -> 328 ;
329 [label=<gini = 0.0<br/>samples = 1<br/>value = [1, 0]>, fillcolor="#e58139ff"] ;
327 -> 329 ;
330 [label=<gini = 0.0<br/>samples = 1<br/>value = [1, 0]>, fillcolor="#e58139ff"] ;
324 -> 330 ;
331 [label=<X<SUB>103</SUB> &le; 0.285<br/>gini = 0.457<br/>samples = 85<br/>value = [55, 30]>, fillcolor="#e5813974"] ;
307 -> 331 ;
332 [label=<X<SUB>30</SUB> &le; 0.0<br/>gini = 0.245<br/>samples = 49<br/>value = [42, 7]>, fillcolor="#e58139d4"] ;
331 -> 332 ;
333 [label=<X<SUB>103</SUB> &le; 0.179<br/>gini = 0.494<br/>samples = 9<br/>value = [4, 5]>, fillcolor="#399de533"] ;
332 -> 333 ;
334 [label=<gini = 0.0<br/>samples = 4<br/>value = [0, 4]>, fillcolor="#399de5ff"] ;
333 -> 334 ;
335 [label=<X<SUB>66</SUB> &le; 0.0<br/>gini = 0.32<br/>samples = 5<br/>value = [4, 1]>, fillcolor="#e58139bf"] ;
333 -> 335 ;
336 [label=<gini = 0.0<br/>samples = 1<br/>value = [0, 1]>, fillcolor="#399de5ff"] ;
335 -> 336 ;
337 [label=<gini = 0.0<br/>samples = 4<br/>value = [4, 0]>, fillcolor="#e58139ff"] ;
335 -> 337 ;
338 [label=<X<SUB>117</SUB> &le; 0.007<br/>gini = 0.095<br/>samples = 40<br/>value = [38, 2]>, fillcolor="#e58139f2"] ;
332 -> 338 ;
339 [label=<gini = 0.0<br/>samples = 1<br/>value = [0, 1]>, fillcolor="#399de5ff"] ;
338 -> 339 ;
340 [label=<X<SUB>61</SUB> &le; 0.057<br/>gini = 0.05<br/>samples = 39<br/>value = [38, 1]>, fillcolor="#e58139f8"] ;
338 -> 340 ;
341 [label=<gini = 0.0<br/>samples = 38<br/>value = [38, 0]>, fillcolor="#e58139ff"] ;
340 -> 341 ;
342 [label=<gini = 0.0<br/>samples = 1<br/>value = [0, 1]>, fillcolor="#399de5ff"] ;
340 -> 342 ;
343 [label=<X<SUB>58</SUB> &le; 0.136<br/>gini = 0.461<br/>samples = 36<br/>value = [13, 23]>, fillcolor="#399de56f"] ;
331 -> 343 ;
344 [label=<X<SUB>67</SUB> &le; 0.0<br/>gini = 0.1<br/>samples = 19<br/>value = [1, 18]>, fillcolor="#399de5f1"] ;
343 -> 344 ;
345 [label=<gini = 0.0<br/>samples = 1<br/>value = [1, 0]>, fillcolor="#e58139ff"] ;
344 -> 345 ;
346 [label=<gini = 0.0<br/>samples = 18<br/>value = [0, 18]>, fillcolor="#399de5ff"] ;
344 -> 346 ;
347 [label=<X<SUB>14</SUB> &le; 759.944<br/>gini = 0.415<br/>samples = 17<br/>value = [12, 5]>, fillcolor="#e5813995"] ;
343 -> 347 ;
348 [label=<gini = 0.0<br/>samples = 3<br/>value = [0, 3]>, fillcolor="#399de5ff"] ;
347 -> 348 ;
349 [label=<X<SUB>13</SUB> &le; 810.795<br/>gini = 0.245<br/>samples = 14<br/>value = [12, 2]>, fillcolor="#e58139d4"] ;
347 -> 349 ;
350 [label=<gini = 0.0<br/>samples = 11<br/>value = [11, 0]>, fillcolor="#e58139ff"] ;
349 -> 350 ;
351 [label=<X<SUB>17</SUB> &le; 0.502<br/>gini = 0.444<br/>samples = 3<br/>value = [1, 2]>, fillcolor="#399de57f"] ;
349 -> 351 ;
352 [label=<gini = 0.0<br/>samples = 2<br/>value = [0, 2]>, fillcolor="#399de5ff"] ;
351 -> 352 ;
353 [label=<gini = 0.0<br/>samples = 1<br/>value = [1, 0]>, fillcolor="#e58139ff"] ;
351 -> 353 ;
354 [label=<X<SUB>11</SUB> &le; 6125.75<br/>gini = 0.113<br/>samples = 183<br/>value = [11, 172]>, fillcolor="#399de5ef"] ;
226 -> 354 ;
355 [label=<gini = 0.0<br/>samples = 2<br/>value = [2, 0]>, fillcolor="#e58139ff"] ;
354 -> 355 ;
356 [label=<X<SUB>71</SUB> &le; 0.01<br/>gini = 0.095<br/>samples = 181<br/>value = [9, 172]>, fillcolor="#399de5f2"] ;
354 -> 356 ;
357 [label=<X<SUB>58</SUB> &le; 0.215<br/>gini = 0.076<br/>samples = 178<br/>value = [7, 171]>, fillcolor="#399de5f5"] ;
356 -> 357 ;
358 [label=<X<SUB>117</SUB> &le; 0.303<br/>gini = 0.046<br/>samples = 171<br/>value = [4, 167]>, fillcolor="#399de5f9"] ;
357 -> 358 ;
359 [label=<X<SUB>23</SUB> &le; 0.078<br/>gini = 0.035<br/>samples = 169<br/>value = [3, 166]>, fillcolor="#399de5fa"] ;
358 -> 359 ;
360 [label=<X<SUB>18</SUB> &le; 0.293<br/>gini = 0.024<br/>samples = 167<br/>value = [2, 165]>, fillcolor="#399de5fc"] ;
359 -> 360 ;
361 [label=<X<SUB>79</SUB> &le; 0.005<br/>gini = 0.012<br/>samples = 165<br/>value = [1, 164]>, fillcolor="#399de5fd"] ;
360 -> 361 ;
362 [label=<gini = 0.0<br/>samples = 163<br/>value = [0, 163]>, fillcolor="#399de5ff"] ;
361 -> 362 ;
363 [label=<X<SUB>7</SUB> &le; 0.033<br/>gini = 0.5<br/>samples = 2<br/>value = [1, 1]>, fillcolor="#e5813900"] ;
361 -> 363 ;
364 [label=<gini = 0.0<br/>samples = 1<br/>value = [0, 1]>, fillcolor="#399de5ff"] ;
363 -> 364 ;
365 [label=<gini = 0.0<br/>samples = 1<br/>value = [1, 0]>, fillcolor="#e58139ff"] ;
363 -> 365 ;
366 [label=<X<SUB>69</SUB> &le; 0.001<br/>gini = 0.5<br/>samples = 2<br/>value = [1, 1]>, fillcolor="#e5813900"] ;
360 -> 366 ;
367 [label=<gini = 0.0<br/>samples = 1<br/>value = [0, 1]>, fillcolor="#399de5ff"] ;
366 -> 367 ;
368 [label=<gini = 0.0<br/>samples = 1<br/>value = [1, 0]>, fillcolor="#e58139ff"] ;
366 -> 368 ;
369 [label=<X<SUB>22</SUB> &le; 0.045<br/>gini = 0.5<br/>samples = 2<br/>value = [1, 1]>, fillcolor="#e5813900"] ;
359 -> 369 ;
370 [label=<gini = 0.0<br/>samples = 1<br/>value = [1, 0]>, fillcolor="#e58139ff"] ;
369 -> 370 ;
371 [label=<gini = 0.0<br/>samples = 1<br/>value = [0, 1]>, fillcolor="#399de5ff"] ;
369 -> 371 ;
372 [label=<X<SUB>61</SUB> &le; 0.042<br/>gini = 0.5<br/>samples = 2<br/>value = [1, 1]>, fillcolor="#e5813900"] ;
358 -> 372 ;
373 [label=<gini = 0.0<br/>samples = 1<br/>value = [0, 1]>, fillcolor="#399de5ff"] ;
372 -> 373 ;
374 [label=<gini = 0.0<br/>samples = 1<br/>value = [1, 0]>, fillcolor="#e58139ff"] ;
372 -> 374 ;
375 [label=<X<SUB>23</SUB> &le; 0.027<br/>gini = 0.49<br/>samples = 7<br/>value = [3, 4]>, fillcolor="#399de540"] ;
357 -> 375 ;
376 [label=<gini = 0.0<br/>samples = 4<br/>value = [0, 4]>, fillcolor="#399de5ff"] ;
375 -> 376 ;
377 [label=<gini = 0.0<br/>samples = 3<br/>value = [3, 0]>, fillcolor="#e58139ff"] ;
375 -> 377 ;
378 [label=<X<SUB>16</SUB> &le; 56.487<br/>gini = 0.444<br/>samples = 3<br/>value = [2, 1]>, fillcolor="#e581397f"] ;
356 -> 378 ;
379 [label=<gini = 0.0<br/>samples = 2<br/>value = [2, 0]>, fillcolor="#e58139ff"] ;
378 -> 379 ;
380 [label=<gini = 0.0<br/>samples = 1<br/>value = [0, 1]>, fillcolor="#399de5ff"] ;
378 -> 380 ;
381 [label=<X<SUB>89</SUB> &le; 0.015<br/>gini = 0.416<br/>samples = 44<br/>value = [31, 13]>, fillcolor="#e5813994"] ;
225 -> 381 ;
382 [label=<X<SUB>44</SUB> &le; 0.0<br/>gini = 0.301<br/>samples = 38<br/>value = [31, 7]>, fillcolor="#e58139c5"] ;
381 -> 382 ;
383 [label=<X<SUB>7</SUB> &le; 0.07<br/>gini = 0.32<br/>samples = 5<br/>value = [1, 4]>, fillcolor="#399de5bf"] ;
382 -> 383 ;
384 [label=<gini = 0.0<br/>samples = 1<br/>value = [1, 0]>, fillcolor="#e58139ff"] ;
383 -> 384 ;
385 [label=<gini = 0.0<br/>samples = 4<br/>value = [0, 4]>, fillcolor="#399de5ff"] ;
383 -> 385 ;
386 [label=<X<SUB>18</SUB> &le; 0.032<br/>gini = 0.165<br/>samples = 33<br/>value = [30, 3]>, fillcolor="#e58139e6"] ;
382 -> 386 ;
387 [label=<gini = 0.0<br/>samples = 2<br/>value = [0, 2]>, fillcolor="#399de5ff"] ;
386 -> 387 ;
388 [label=<X<SUB>90</SUB> &le; 0.216<br/>gini = 0.062<br/>samples = 31<br/>value = [30, 1]>, fillcolor="#e58139f6"] ;
386 -> 388 ;
389 [label=<gini = 0.0<br/>samples = 30<br/>value = [30, 0]>, fillcolor="#e58139ff"] ;
388 -> 389 ;
390 [label=<gini = 0.0<br/>samples = 1<br/>value = [0, 1]>, fillcolor="#399de5ff"] ;
388 -> 390 ;
391 [label=<gini = 0.0<br/>samples = 6<br/>value = [0, 6]>, fillcolor="#399de5ff"] ;
381 -> 391 ;
392 [label=<X<SUB>103</SUB> &le; 0.223<br/>gini = 0.072<br/>samples = 239<br/>value = [9, 230]>, fillcolor="#399de5f5"] ;
224 -> 392 ;
393 [label=<X<SUB>122</SUB> &le; 0.45<br/>gini = 0.49<br/>samples = 14<br/>value = [6, 8]>, fillcolor="#399de540"] ;
392 -> 393 ;
394 [label=<X<SUB>22</SUB> &le; 0.039<br/>gini = 0.375<br/>samples = 8<br/>value = [6, 2]>, fillcolor="#e58139aa"] ;
393 -> 394 ;
395 [label=<gini = 0.0<br/>samples = 6<br/>value = [6, 0]>, fillcolor="#e58139ff"] ;
394 -> 395 ;
396 [label=<gini = 0.0<br/>samples = 2<br/>value = [0, 2]>, fillcolor="#399de5ff"] ;
394 -> 396 ;
397 [label=<gini = 0.0<br/>samples = 6<br/>value = [0, 6]>, fillcolor="#399de5ff"] ;
393 -> 397 ;
398 [label=<X<SUB>122</SUB> &le; 0.995<br/>gini = 0.026<br/>samples = 225<br/>value = [3, 222]>, fillcolor="#399de5fc"] ;
392 -> 398 ;
399 [label=<X<SUB>98</SUB> &le; 0.3<br/>gini = 0.009<br/>samples = 223<br/>value = [1, 222]>, fillcolor="#399de5fe"] ;
398 -> 399 ;
400 [label=<gini = 0.0<br/>samples = 222<br/>value = [0, 222]>, fillcolor="#399de5ff"] ;
399 -> 400 ;
401 [label=<gini = 0.0<br/>samples = 1<br/>value = [1, 0]>, fillcolor="#e58139ff"] ;
399 -> 401 ;
402 [label=<gini = 0.0<br/>samples = 2<br/>value = [2, 0]>, fillcolor="#e58139ff"] ;
398 -> 402 ;
403 [label=<X<SUB>101</SUB> &le; 0.094<br/>gini = 0.149<br/>samples = 1015<br/>value = [82, 933]>, fillcolor="#399de5e9"] ;
223 -> 403 ;
404 [label=<X<SUB>3</SUB> &le; 34.867<br/>gini = 0.07<br/>samples = 581<br/>value = [21, 560]>, fillcolor="#399de5f5"] ;
403 -> 404 ;
405 [label=<X<SUB>114</SUB> &le; 0.443<br/>gini = 0.067<br/>samples = 580<br/>value = [20, 560]>, fillcolor="#399de5f6"] ;
404 -> 405 ;
406 [label=<X<SUB>122</SUB> &le; 0.996<br/>gini = 0.063<br/>samples = 579<br/>value = [19, 560]>, fillcolor="#399de5f6"] ;
405 -> 406 ;
407 [label=<X<SUB>112</SUB> &le; 0.348<br/>gini = 0.06<br/>samples = 578<br/>value = [18, 560]>, fillcolor="#399de5f7"] ;
406 -> 407 ;
408 [label=<X<SUB>6</SUB> &le; 0.01<br/>gini = 0.057<br/>samples = 577<br/>value = [17, 560]>, fillcolor="#399de5f7"] ;
407 -> 408 ;
409 [label=<X<SUB>104</SUB> &le; 0.139<br/>gini = 0.038<br/>samples = 521<br/>value = [10, 511]>, fillcolor="#399de5fa"] ;
408 -> 409 ;
410 [label=<X<SUB>8</SUB> &le; 0.091<br/>gini = 0.031<br/>samples = 515<br/>value = [8, 507]>, fillcolor="#399de5fb"] ;
409 -> 410 ;
411 [label=<X<SUB>11</SUB> &le; 7667.631<br/>gini = 0.027<br/>samples = 513<br/>value = [7, 506]>, fillcolor="#399de5fb"] ;
410 -> 411 ;
412 [label=<X<SUB>83</SUB> &le; 0.005<br/>gini = 0.016<br/>samples = 494<br/>value = [4, 490]>, fillcolor="#399de5fd"] ;
411 -> 412 ;
413 [label=<X<SUB>58</SUB> &le; 0.212<br/>gini = 0.008<br/>samples = 485<br/>value = [2, 483]>, fillcolor="#399de5fe"] ;
412 -> 413 ;
414 [label=<gini = 0.0<br/>samples = 457<br/>value = [0, 457]>, fillcolor="#399de5ff"] ;
413 -> 414 ;
415 [label=<X<SUB>58</SUB> &le; 0.213<br/>gini = 0.133<br/>samples = 28<br/>value = [2, 26]>, fillcolor="#399de5eb"] ;
413 -> 415 ;
416 [label=<gini = 0.0<br/>samples = 1<br/>value = [1, 0]>, fillcolor="#e58139ff"] ;
415 -> 416 ;
417 [label=<X<SUB>16</SUB> &le; 43.04<br/>gini = 0.071<br/>samples = 27<br/>value = [1, 26]>, fillcolor="#399de5f5"] ;
415 -> 417 ;
418 [label=<X<SUB>111</SUB> &le; 0.081<br/>gini = 0.5<br/>samples = 2<br/>value = [1, 1]>, fillcolor="#e5813900"] ;
417 -> 418 ;
419 [label=<gini = 0.0<br/>samples = 1<br/>value = [0, 1]>, fillcolor="#399de5ff"] ;
418 -> 419 ;
420 [label=<gini = 0.0<br/>samples = 1<br/>value = [1, 0]>, fillcolor="#e58139ff"] ;
418 -> 420 ;
421 [label=<gini = 0.0<br/>samples = 25<br/>value = [0, 25]>, fillcolor="#399de5ff"] ;
417 -> 421 ;
422 [label=<X<SUB>5</SUB> &le; 0.02<br/>gini = 0.346<br/>samples = 9<br/>value = [2, 7]>, fillcolor="#399de5b6"] ;
412 -> 422 ;
423 [label=<gini = 0.0<br/>samples = 7<br/>value = [0, 7]>, fillcolor="#399de5ff"] ;
422 -> 423 ;
424 [label=<gini = 0.0<br/>samples = 2<br/>value = [2, 0]>, fillcolor="#e58139ff"] ;
422 -> 424 ;
425 [label=<X<SUB>59</SUB> &le; 0.008<br/>gini = 0.266<br/>samples = 19<br/>value = [3, 16]>, fillcolor="#399de5cf"] ;
411 -> 425 ;
426 [label=<X<SUB>44</SUB> &le; 0.0<br/>gini = 0.375<br/>samples = 4<br/>value = [3, 1]>, fillcolor="#e58139aa"] ;
425 -> 426 ;
427 [label=<gini = 0.0<br/>samples = 1<br/>value = [0, 1]>, fillcolor="#399de5ff"] ;
426 -> 427 ;
428 [label=<gini = 0.0<br/>samples = 3<br/>value = [3, 0]>, fillcolor="#e58139ff"] ;
426 -> 428 ;
429 [label=<gini = 0.0<br/>samples = 15<br/>value = [0, 15]>, fillcolor="#399de5ff"] ;
425 -> 429 ;
430 [label=<X<SUB>123</SUB> &le; 0.676<br/>gini = 0.5<br/>samples = 2<br/>value = [1, 1]>, fillcolor="#e5813900"] ;
410 -> 430 ;
431 [label=<gini = 0.0<br/>samples = 1<br/>value = [0, 1]>, fillcolor="#399de5ff"] ;
430 -> 431 ;
432 [label=<gini = 0.0<br/>samples = 1<br/>value = [1, 0]>, fillcolor="#e58139ff"] ;
430 -> 432 ;
433 [label=<X<SUB>15</SUB> &le; 119.454<br/>gini = 0.444<br/>samples = 6<br/>value = [2, 4]>, fillcolor="#399de57f"] ;
409 -> 433 ;
434 [label=<gini = 0.0<br/>samples = 4<br/>value = [0, 4]>, fillcolor="#399de5ff"] ;
433 -> 434 ;
435 [label=<gini = 0.0<br/>samples = 2<br/>value = [2, 0]>, fillcolor="#e58139ff"] ;
433 -> 435 ;
436 [label=<X<SUB>5</SUB> &le; 0.017<br/>gini = 0.219<br/>samples = 56<br/>value = [7, 49]>, fillcolor="#399de5db"] ;
408 -> 436 ;
437 [label=<X<SUB>101</SUB> &le; 0.002<br/>gini = 0.494<br/>samples = 9<br/>value = [4, 5]>, fillcolor="#399de533"] ;
436 -> 437 ;
438 [label=<gini = 0.0<br/>samples = 4<br/>value = [4, 0]>, fillcolor="#e58139ff"] ;
437 -> 438 ;
439 [label=<gini = 0.0<br/>samples = 5<br/>value = [0, 5]>, fillcolor="#399de5ff"] ;
437 -> 439 ;
440 [label=<X<SUB>89</SUB> &le; 0.06<br/>gini = 0.12<br/>samples = 47<br/>value = [3, 44]>, fillcolor="#399de5ee"] ;
436 -> 440 ;
441 [label=<X<SUB>122</SUB> &le; 0.976<br/>gini = 0.083<br/>samples = 46<br/>value = [2, 44]>, fillcolor="#399de5f3"] ;
440 -> 441 ;
442 [label=<X<SUB>2</SUB> &le; 0.234<br/>gini = 0.043<br/>samples = 45<br/>value = [1, 44]>, fillcolor="#399de5f9"] ;
441 -> 442 ;
443 [label=<X<SUB>8</SUB> &le; 0.043<br/>gini = 0.375<br/>samples = 4<br/>value = [1, 3]>, fillcolor="#399de5aa"] ;
442 -> 443 ;
444 [label=<gini = 0.0<br/>samples = 1<br/>value = [1, 0]>, fillcolor="#e58139ff"] ;
443 -> 444 ;
445 [label=<gini = 0.0<br/>samples = 3<br/>value = [0, 3]>, fillcolor="#399de5ff"] ;
443 -> 445 ;
446 [label=<gini = 0.0<br/>samples = 41<br/>value = [0, 41]>, fillcolor="#399de5ff"] ;
442 -> 446 ;
447 [label=<gini = 0.0<br/>samples = 1<br/>value = [1, 0]>, fillcolor="#e58139ff"] ;
441 -> 447 ;
448 [label=<gini = 0.0<br/>samples = 1<br/>value = [1, 0]>, fillcolor="#e58139ff"] ;
440 -> 448 ;
449 [label=<gini = 0.0<br/>samples = 1<br/>value = [1, 0]>, fillcolor="#e58139ff"] ;
407 -> 449 ;
450 [label=<gini = 0.0<br/>samples = 1<br/>value = [1, 0]>, fillcolor="#e58139ff"] ;
406 -> 450 ;
451 [label=<gini = 0.0<br/>samples = 1<br/>value = [1, 0]>, fillcolor="#e58139ff"] ;
405 -> 451 ;
452 [label=<gini = 0.0<br/>samples = 1<br/>value = [1, 0]>, fillcolor="#e58139ff"] ;
404 -> 452 ;
453 [label=<X<SUB>116</SUB> &le; 0.082<br/>gini = 0.242<br/>samples = 434<br/>value = [61, 373]>, fillcolor="#399de5d5"] ;
403 -> 453 ;
454 [label=<X<SUB>102</SUB> &le; 0.159<br/>gini = 0.491<br/>samples = 69<br/>value = [30, 39]>, fillcolor="#399de53b"] ;
453 -> 454 ;
455 [label=<X<SUB>122</SUB> &le; 0.974<br/>gini = 0.225<br/>samples = 31<br/>value = [4, 27]>, fillcolor="#399de5d9"] ;
454 -> 455 ;
456 [label=<X<SUB>113</SUB> &le; 0.001<br/>gini = 0.128<br/>samples = 29<br/>value = [2, 27]>, fillcolor="#399de5ec"] ;
455 -> 456 ;
457 [label=<X<SUB>103</SUB> &le; 0.179<br/>gini = 0.444<br/>samples = 3<br/>value = [2, 1]>, fillcolor="#e581397f"] ;
456 -> 457 ;
458 [label=<gini = 0.0<br/>samples = 2<br/>value = [2, 0]>, fillcolor="#e58139ff"] ;
457 -> 458 ;
459 [label=<gini = 0.0<br/>samples = 1<br/>value = [0, 1]>, fillcolor="#399de5ff"] ;
457 -> 459 ;
460 [label=<gini = 0.0<br/>samples = 26<br/>value = [0, 26]>, fillcolor="#399de5ff"] ;
456 -> 460 ;
461 [label=<gini = 0.0<br/>samples = 2<br/>value = [2, 0]>, fillcolor="#e58139ff"] ;
455 -> 461 ;
462 [label=<X<SUB>85</SUB> &le; 0.0<br/>gini = 0.432<br/>samples = 38<br/>value = [26, 12]>, fillcolor="#e5813989"] ;
454 -> 462 ;
463 [label=<X<SUB>122</SUB> &le; 0.899<br/>gini = 0.312<br/>samples = 31<br/>value = [25, 6]>, fillcolor="#e58139c2"] ;
462 -> 463 ;
464 [label=<X<SUB>106</SUB> &le; 0.009<br/>gini = 0.191<br/>samples = 28<br/>value = [25, 3]>, fillcolor="#e58139e0"] ;
463 -> 464 ;
465 [label=<gini = 0.0<br/>samples = 23<br/>value = [23, 0]>, fillcolor="#e58139ff"] ;
464 -> 465 ;
466 [label=<X<SUB>18</SUB> &le; 0.116<br/>gini = 0.48<br/>samples = 5<br/>value = [2, 3]>, fillcolor="#399de555"] ;
464 -> 466 ;
467 [label=<gini = 0.0<br/>samples = 2<br/>value = [2, 0]>, fillcolor="#e58139ff"] ;
466 -> 467 ;
468 [label=<gini = 0.0<br/>samples = 3<br/>value = [0, 3]>, fillcolor="#399de5ff"] ;
466 -> 468 ;
469 [label=<gini = 0.0<br/>samples = 3<br/>value = [0, 3]>, fillcolor="#399de5ff"] ;
463 -> 469 ;
470 [label=<X<SUB>62</SUB> &le; 0.019<br/>gini = 0.245<br/>samples = 7<br/>value = [1, 6]>, fillcolor="#399de5d4"] ;
462 -> 470 ;
471 [label=<gini = 0.0<br/>samples = 6<br/>value = [0, 6]>, fillcolor="#399de5ff"] ;
470 -> 471 ;
472 [label=<gini = 0.0<br/>samples = 1<br/>value = [1, 0]>, fillcolor="#e58139ff"] ;
470 -> 472 ;
473 [label=<X<SUB>7</SUB> &le; 0.178<br/>gini = 0.155<br/>samples = 365<br/>value = [31, 334]>, fillcolor="#399de5e7"] ;
453 -> 473 ;
474 [label=<X<SUB>7</SUB> &le; 0.05<br/>gini = 0.139<br/>samples = 359<br/>value = [27, 332]>, fillcolor="#399de5ea"] ;
473 -> 474 ;
475 [label=<gini = 0.0<br/>samples = 2<br/>value = [2, 0]>, fillcolor="#e58139ff"] ;
474 -> 475 ;
476 [label=<X<SUB>101</SUB> &le; 0.657<br/>gini = 0.13<br/>samples = 357<br/>value = [25, 332]>, fillcolor="#399de5ec"] ;
474 -> 476 ;
477 [label=<X<SUB>112</SUB> &le; 0.348<br/>gini = 0.117<br/>samples = 351<br/>value = [22, 329]>, fillcolor="#399de5ee"] ;
476 -> 477 ;
478 [label=<X<SUB>82</SUB> &le; 0.01<br/>gini = 0.108<br/>samples = 348<br/>value = [20, 328]>, fillcolor="#399de5ef"] ;
477 -> 478 ;
479 [label=<X<SUB>41</SUB> &le; 0.014<br/>gini = 0.104<br/>samples = 347<br/>value = [19, 328]>, fillcolor="#399de5f0"] ;
478 -> 479 ;
480 [label=<X<SUB>0</SUB> &le; 267.5<br/>gini = 0.099<br/>samples = 346<br/>value = [18, 328]>, fillcolor="#399de5f1"] ;
479 -> 480 ;
481 [label=<X<SUB>101</SUB> &le; 0.095<br/>gini = 0.094<br/>samples = 345<br/>value = [17, 328]>, fillcolor="#399de5f2"] ;
480 -> 481 ;
482 [label=<gini = 0.0<br/>samples = 1<br/>value = [1, 0]>, fillcolor="#e58139ff"] ;
481 -> 482 ;
483 [label=<X<SUB>76</SUB> &le; 0.016<br/>gini = 0.089<br/>samples = 344<br/>value = [16, 328]>, fillcolor="#399de5f3"] ;
481 -> 483 ;
484 [label=<X<SUB>117</SUB> &le; 0.341<br/>gini = 0.084<br/>samples = 343<br/>value = [15, 328]>, fillcolor="#399de5f3"] ;
483 -> 484 ;
485 [label=<X<SUB>7</SUB> &le; 0.093<br/>gini = 0.074<br/>samples = 338<br/>value = [13, 325]>, fillcolor="#399de5f5"] ;
484 -> 485 ;
486 [label=<X<SUB>14</SUB> &le; 1817.898<br/>gini = 0.175<br/>samples = 103<br/>value = [10, 93]>, fillcolor="#399de5e4"] ;
485 -> 486 ;
487 [label=<X<SUB>67</SUB> &le; 0.02<br/>gini = 0.146<br/>samples = 101<br/>value = [8, 93]>, fillcolor="#399de5e9"] ;
486 -> 487 ;
488 [label=<X<SUB>10</SUB> &le; 1462.589<br/>gini = 0.13<br/>samples = 100<br/>value = [7, 93]>, fillcolor="#399de5ec"] ;
487 -> 488 ;
489 [label=<X<SUB>8</SUB> &le; 0.05<br/>gini = 0.114<br/>samples = 99<br/>value = [6, 93]>, fillcolor="#399de5ef"] ;
488 -> 489 ;
490 [label=<X<SUB>60</SUB> &le; 0.062<br/>gini = 0.028<br/>samples = 71<br/>value = [1, 70]>, fillcolor="#399de5fb"] ;
489 -> 490 ;
491 [label=<gini = 0.0<br/>samples = 67<br/>value = [0, 67]>, fillcolor="#399de5ff"] ;
490 -> 491 ;
492 [label=<X<SUB>41</SUB> &le; 0.003<br/>gini = 0.375<br/>samples = 4<br/>value = [1, 3]>, fillcolor="#399de5aa"] ;
490 -> 492 ;
493 [label=<gini = 0.0<br/>samples = 1<br/>value = [1, 0]>, fillcolor="#e58139ff"] ;
492 -> 493 ;
494 [label=<gini = 0.0<br/>samples = 3<br/>value = [0, 3]>, fillcolor="#399de5ff"] ;
492 -> 494 ;
495 [label=<X<SUB>100</SUB> &le; 0.022<br/>gini = 0.293<br/>samples = 28<br/>value = [5, 23]>, fillcolor="#399de5c8"] ;
489 -> 495 ;
496 [label=<X<SUB>114</SUB> &le; 0.029<br/>gini = 0.486<br/>samples = 12<br/>value = [5, 7]>, fillcolor="#399de549"] ;
495 -> 496 ;
497 [label=<gini = 0.0<br/>samples = 6<br/>value = [0, 6]>, fillcolor="#399de5ff"] ;
496 -> 497 ;
498 [label=<X<SUB>90</SUB> &le; 0.114<br/>gini = 0.278<br/>samples = 6<br/>value = [5, 1]>, fillcolor="#e58139cc"] ;
496 -> 498 ;
499 [label=<gini = 0.0<br/>samples = 5<br/>value = [5, 0]>, fillcolor="#e58139ff"] ;
498 -> 499 ;
500 [label=<gini = 0.0<br/>samples = 1<br/>value = [0, 1]>, fillcolor="#399de5ff"] ;
498 -> 500 ;
501 [label=<gini = 0.0<br/>samples = 16<br/>value = [0, 16]>, fillcolor="#399de5ff"] ;
495 -> 501 ;
502 [label=<gini = 0.0<br/>samples = 1<br/>value = [1, 0]>, fillcolor="#e58139ff"] ;
488 -> 502 ;
503 [label=<gini = 0.0<br/>samples = 1<br/>value = [1, 0]>, fillcolor="#e58139ff"] ;
487 -> 503 ;
504 [label=<gini = 0.0<br/>samples = 2<br/>value = [2, 0]>, fillcolor="#e58139ff"] ;
486 -> 504 ;
505 [label=<X<SUB>117</SUB> &le; 0.073<br/>gini = 0.025<br/>samples = 235<br/>value = [3, 232]>, fillcolor="#399de5fc"] ;
485 -> 505 ;
506 [label=<X<SUB>117</SUB> &le; 0.018<br/>gini = 0.375<br/>samples = 8<br/>value = [2, 6]>, fillcolor="#399de5aa"] ;
505 -> 506 ;
507 [label=<gini = 0.0<br/>samples = 5<br/>value = [0, 5]>, fillcolor="#399de5ff"] ;
506 -> 507 ;
508 [label=<X<SUB>114</SUB> &le; 0.064<br/>gini = 0.444<br/>samples = 3<br/>value = [2, 1]>, fillcolor="#e581397f"] ;
506 -> 508 ;
509 [label=<gini = 0.0<br/>samples = 1<br/>value = [0, 1]>, fillcolor="#399de5ff"] ;
508 -> 509 ;
510 [label=<gini = 0.0<br/>samples = 2<br/>value = [2, 0]>, fillcolor="#e58139ff"] ;
508 -> 510 ;
511 [label=<X<SUB>14</SUB> &le; 2147.979<br/>gini = 0.009<br/>samples = 227<br/>value = [1, 226]>, fillcolor="#399de5fe"] ;
505 -> 511 ;
512 [label=<gini = 0.0<br/>samples = 223<br/>value = [0, 223]>, fillcolor="#399de5ff"] ;
511 -> 512 ;
513 [label=<X<SUB>56</SUB> &le; 0.0<br/>gini = 0.375<br/>samples = 4<br/>value = [1, 3]>, fillcolor="#399de5aa"] ;
511 -> 513 ;
514 [label=<gini = 0.0<br/>samples = 3<br/>value = [0, 3]>, fillcolor="#399de5ff"] ;
513 -> 514 ;
515 [label=<gini = 0.0<br/>samples = 1<br/>value = [1, 0]>, fillcolor="#e58139ff"] ;
513 -> 515 ;
516 [label=<X<SUB>1</SUB> &le; 2.125<br/>gini = 0.48<br/>samples = 5<br/>value = [2, 3]>, fillcolor="#399de555"] ;
484 -> 516 ;
517 [label=<gini = 0.0<br/>samples = 2<br/>value = [2, 0]>, fillcolor="#e58139ff"] ;
516 -> 517 ;
518 [label=<gini = 0.0<br/>samples = 3<br/>value = [0, 3]>, fillcolor="#399de5ff"] ;
516 -> 518 ;
519 [label=<gini = 0.0<br/>samples = 1<br/>value = [1, 0]>, fillcolor="#e58139ff"] ;
483 -> 519 ;
520 [label=<gini = 0.0<br/>samples = 1<br/>value = [1, 0]>, fillcolor="#e58139ff"] ;
480 -> 520 ;
521 [label=<gini = 0.0<br/>samples = 1<br/>value = [1, 0]>, fillcolor="#e58139ff"] ;
479 -> 521 ;
522 [label=<gini = 0.0<br/>samples = 1<br/>value = [1, 0]>, fillcolor="#e58139ff"] ;
478 -> 522 ;
523 [label=<X<SUB>13</SUB> &le; 836.585<br/>gini = 0.444<br/>samples = 3<br/>value = [2, 1]>, fillcolor="#e581397f"] ;
477 -> 523 ;
524 [label=<gini = 0.0<br/>samples = 1<br/>value = [0, 1]>, fillcolor="#399de5ff"] ;
523 -> 524 ;
525 [label=<gini = 0.0<br/>samples = 2<br/>value = [2, 0]>, fillcolor="#e58139ff"] ;
523 -> 525 ;
526 [label=<X<SUB>2</SUB> &le; 2.091<br/>gini = 0.5<br/>samples = 6<br/>value = [3, 3]>, fillcolor="#e5813900"] ;
476 -> 526 ;
527 [label=<gini = 0.0<br/>samples = 3<br/>value = [3, 0]>, fillcolor="#e58139ff"] ;
526 -> 527 ;
528 [label=<gini = 0.0<br/>samples = 3<br/>value = [0, 3]>, fillcolor="#399de5ff"] ;
526 -> 528 ;
529 [label=<X<SUB>116</SUB> &le; 0.116<br/>gini = 0.444<br/>samples = 6<br/>value = [4, 2]>, fillcolor="#e581397f"] ;
473 -> 529 ;
530 [label=<gini = 0.0<br/>samples = 2<br/>value = [0, 2]>, fillcolor="#399de5ff"] ;
529 -> 530 ;
531 [label=<gini = 0.0<br/>samples = 4<br/>value = [4, 0]>, fillcolor="#e58139ff"] ;
529 -> 531 ;
532 [label=<X<SUB>101</SUB> &le; 0.106<br/>gini = 0.465<br/>samples = 493<br/>value = [181, 312]>, fillcolor="#399de56b"] ;
210 -> 532 ;
533 [label=<X<SUB>5</SUB> &le; 0.015<br/>gini = 0.311<br/>samples = 223<br/>value = [43, 180]>, fillcolor="#399de5c2"] ;
532 -> 533 ;
534 [label=<X<SUB>29</SUB> &le; 0.006<br/>gini = 0.5<br/>samples = 45<br/>value = [23, 22]>, fillcolor="#e581390b"] ;
533 -> 534 ;
535 [label=<X<SUB>9</SUB> &le; 3534.509<br/>gini = 0.426<br/>samples = 26<br/>value = [8, 18]>, fillcolor="#399de58e"] ;
534 -> 535 ;
536 [label=<X<SUB>16</SUB> &le; 45.417<br/>gini = 0.208<br/>samples = 17<br/>value = [2, 15]>, fillcolor="#399de5dd"] ;
535 -> 536 ;
537 [label=<gini = 0.0<br/>samples = 2<br/>value = [2, 0]>, fillcolor="#e58139ff"] ;
536 -> 537 ;
538 [label=<gini = 0.0<br/>samples = 15<br/>value = [0, 15]>, fillcolor="#399de5ff"] ;
536 -> 538 ;
539 [label=<X<SUB>82</SUB> &le; 0.0<br/>gini = 0.444<br/>samples = 9<br/>value = [6, 3]>, fillcolor="#e581397f"] ;
535 -> 539 ;
540 [label=<gini = 0.0<br/>samples = 6<br/>value = [6, 0]>, fillcolor="#e58139ff"] ;
539 -> 540 ;
541 [label=<gini = 0.0<br/>samples = 3<br/>value = [0, 3]>, fillcolor="#399de5ff"] ;
539 -> 541 ;
542 [label=<X<SUB>106</SUB> &le; 0.009<br/>gini = 0.332<br/>samples = 19<br/>value = [15, 4]>, fillcolor="#e58139bb"] ;
534 -> 542 ;
543 [label=<gini = 0.0<br/>samples = 13<br/>value = [13, 0]>, fillcolor="#e58139ff"] ;
542 -> 543 ;
544 [label=<X<SUB>40</SUB> &le; 0.005<br/>gini = 0.444<br/>samples = 6<br/>value = [2, 4]>, fillcolor="#399de57f"] ;
542 -> 544 ;
545 [label=<gini = 0.0<br/>samples = 2<br/>value = [2, 0]>, fillcolor="#e58139ff"] ;
544 -> 545 ;
546 [label=<gini = 0.0<br/>samples = 4<br/>value = [0, 4]>, fillcolor="#399de5ff"] ;
544 -> 546 ;
547 [label=<X<SUB>47</SUB> &le; 0.009<br/>gini = 0.199<br/>samples = 178<br/>value = [20, 158]>, fillcolor="#399de5df"] ;
533 -> 547 ;
548 [label=<X<SUB>35</SUB> &le; 0.018<br/>gini = 0.167<br/>samples = 174<br/>value = [16, 158]>, fillcolor="#399de5e5"] ;
547 -> 548 ;
549 [label=<X<SUB>26</SUB> &le; 0.032<br/>gini = 0.15<br/>samples = 172<br/>value = [14, 158]>, fillcolor="#399de5e8"] ;
548 -> 549 ;
550 [label=<X<SUB>66</SUB> &le; 0.0<br/>gini = 0.131<br/>samples = 170<br/>value = [12, 158]>, fillcolor="#399de5ec"] ;
549 -> 550 ;
551 [label=<X<SUB>76</SUB> &le; 0.0<br/>gini = 0.444<br/>samples = 3<br/>value = [2, 1]>, fillcolor="#e581397f"] ;
550 -> 551 ;
552 [label=<gini = 0.0<br/>samples = 1<br/>value = [0, 1]>, fillcolor="#399de5ff"] ;
551 -> 552 ;
553 [label=<gini = 0.0<br/>samples = 2<br/>value = [2, 0]>, fillcolor="#e58139ff"] ;
551 -> 553 ;
554 [label=<X<SUB>4</SUB> &le; 21.33<br/>gini = 0.113<br/>samples = 167<br/>value = [10, 157]>, fillcolor="#399de5ef"] ;
550 -> 554 ;
555 [label=<X<SUB>98</SUB> &le; 0.288<br/>gini = 0.084<br/>samples = 160<br/>value = [7, 153]>, fillcolor="#399de5f3"] ;
554 -> 555 ;
556 [label=<X<SUB>15</SUB> &le; 143.86<br/>gini = 0.073<br/>samples = 159<br/>value = [6, 153]>, fillcolor="#399de5f5"] ;
555 -> 556 ;
557 [label=<X<SUB>16</SUB> &le; 72.034<br/>gini = 0.061<br/>samples = 158<br/>value = [5, 153]>, fillcolor="#399de5f7"] ;
556 -> 557 ;
558 [label=<X<SUB>116</SUB> &le; 0.125<br/>gini = 0.05<br/>samples = 157<br/>value = [4, 153]>, fillcolor="#399de5f8"] ;
557 -> 558 ;
559 [label=<X<SUB>8</SUB> &le; 0.067<br/>gini = 0.038<br/>samples = 155<br/>value = [3, 152]>, fillcolor="#399de5fa"] ;
558 -> 559 ;
560 [label=<X<SUB>94</SUB> &le; 0.197<br/>gini = 0.026<br/>samples = 150<br/>value = [2, 148]>, fillcolor="#399de5fc"] ;
559 -> 560 ;
561 [label=<X<SUB>116</SUB> &le; 0.051<br/>gini = 0.014<br/>samples = 141<br/>value = [1, 140]>, fillcolor="#399de5fd"] ;
560 -> 561 ;
562 [label=<gini = 0.0<br/>samples = 125<br/>value = [0, 125]>, fillcolor="#399de5ff"] ;
561 -> 562 ;
563 [label=<X<SUB>116</SUB> &le; 0.051<br/>gini = 0.117<br/>samples = 16<br/>value = [1, 15]>, fillcolor="#399de5ee"] ;
561 -> 563 ;
564 [label=<gini = 0.0<br/>samples = 1<br/>value = [1, 0]>, fillcolor="#e58139ff"] ;
563 -> 564 ;
565 [label=<gini = 0.0<br/>samples = 15<br/>value = [0, 15]>, fillcolor="#399de5ff"] ;
563 -> 565 ;
566 [label=<X<SUB>63</SUB> &le; 0.004<br/>gini = 0.198<br/>samples = 9<br/>value = [1, 8]>, fillcolor="#399de5df"] ;
560 -> 566 ;
567 [label=<gini = 0.0<br/>samples = 1<br/>value = [1, 0]>, fillcolor="#e58139ff"] ;
566 -> 567 ;
568 [label=<gini = 0.0<br/>samples = 8<br/>value = [0, 8]>, fillcolor="#399de5ff"] ;
566 -> 568 ;
569 [label=<X<SUB>79</SUB> &le; 0.0<br/>gini = 0.32<br/>samples = 5<br/>value = [1, 4]>, fillcolor="#399de5bf"] ;
559 -> 569 ;
570 [label=<gini = 0.0<br/>samples = 1<br/>value = [1, 0]>, fillcolor="#e58139ff"] ;
569 -> 570 ;
571 [label=<gini = 0.0<br/>samples = 4<br/>value = [0, 4]>, fillcolor="#399de5ff"] ;
569 -> 571 ;
572 [label=<X<SUB>104</SUB> &le; 0.028<br/>gini = 0.5<br/>samples = 2<br/>value = [1, 1]>, fillcolor="#e5813900"] ;
558 -> 572 ;
573 [label=<gini = 0.0<br/>samples = 1<br/>value = [1, 0]>, fillcolor="#e58139ff"] ;
572 -> 573 ;
574 [label=<gini = 0.0<br/>samples = 1<br/>value = [0, 1]>, fillcolor="#399de5ff"] ;
572 -> 574 ;
575 [label=<gini = 0.0<br/>samples = 1<br/>value = [1, 0]>, fillcolor="#e58139ff"] ;
557 -> 575 ;
576 [label=<gini = 0.0<br/>samples = 1<br/>value = [1, 0]>, fillcolor="#e58139ff"] ;
556 -> 576 ;
577 [label=<gini = 0.0<br/>samples = 1<br/>value = [1, 0]>, fillcolor="#e58139ff"] ;
555 -> 577 ;
578 [label=<X<SUB>40</SUB> &le; 0.002<br/>gini = 0.49<br/>samples = 7<br/>value = [3, 4]>, fillcolor="#399de540"] ;
554 -> 578 ;
579 [label=<gini = 0.0<br/>samples = 4<br/>value = [0, 4]>, fillcolor="#399de5ff"] ;
578 -> 579 ;
580 [label=<gini = 0.0<br/>samples = 3<br/>value = [3, 0]>, fillcolor="#e58139ff"] ;
578 -> 580 ;
581 [label=<gini = 0.0<br/>samples = 2<br/>value = [2, 0]>, fillcolor="#e58139ff"] ;
549 -> 581 ;
582 [label=<gini = 0.0<br/>samples = 2<br/>value = [2, 0]>, fillcolor="#e58139ff"] ;
548 -> 582 ;
583 [label=<gini = 0.0<br/>samples = 4<br/>value = [4, 0]>, fillcolor="#e58139ff"] ;
547 -> 583 ;
584 [label=<X<SUB>103</SUB> &le; 0.304<br/>gini = 0.5<br/>samples = 270<br/>value = [138, 132]>, fillcolor="#e581390b"] ;
532 -> 584 ;
585 [label=<X<SUB>73</SUB> &le; 0.005<br/>gini = 0.325<br/>samples = 132<br/>value = [105, 27]>, fillcolor="#e58139bd"] ;
584 -> 585 ;
586 [label=<X<SUB>13</SUB> &le; 1621.438<br/>gini = 0.21<br/>samples = 109<br/>value = [96, 13]>, fillcolor="#e58139dc"] ;
585 -> 586 ;
587 [label=<X<SUB>117</SUB> &le; 0.016<br/>gini = 0.131<br/>samples = 99<br/>value = [92, 7]>, fillcolor="#e58139ec"] ;
586 -> 587 ;
588 [label=<X<SUB>117</SUB> &le; 0.008<br/>gini = 0.5<br/>samples = 6<br/>value = [3, 3]>, fillcolor="#e5813900"] ;
587 -> 588 ;
589 [label=<gini = 0.0<br/>samples = 3<br/>value = [3, 0]>, fillcolor="#e58139ff"] ;
588 -> 589 ;
590 [label=<gini = 0.0<br/>samples = 3<br/>value = [0, 3]>, fillcolor="#399de5ff"] ;
588 -> 590 ;
591 [label=<X<SUB>20</SUB> &le; 0.133<br/>gini = 0.082<br/>samples = 93<br/>value = [89, 4]>, fillcolor="#e58139f4"] ;
587 -> 591 ;
592 [label=<X<SUB>12</SUB> &le; 812.576<br/>gini = 0.063<br/>samples = 92<br/>value = [89, 3]>, fillcolor="#e58139f6"] ;
591 -> 592 ;
593 [label=<gini = 0.0<br/>samples = 1<br/>value = [0, 1]>, fillcolor="#399de5ff"] ;
592 -> 593 ;
594 [label=<X<SUB>14</SUB> &le; 1957.657<br/>gini = 0.043<br/>samples = 91<br/>value = [89, 2]>, fillcolor="#e58139f9"] ;
592 -> 594 ;
595 [label=<X<SUB>89</SUB> &le; 0.023<br/>gini = 0.022<br/>samples = 88<br/>value = [87, 1]>, fillcolor="#e58139fc"] ;
594 -> 595 ;
596 [label=<gini = 0.0<br/>samples = 82<br/>value = [82, 0]>, fillcolor="#e58139ff"] ;
595 -> 596 ;
597 [label=<X<SUB>104</SUB> &le; 0.044<br/>gini = 0.278<br/>samples = 6<br/>value = [5, 1]>, fillcolor="#e58139cc"] ;
595 -> 597 ;
598 [label=<gini = 0.0<br/>samples = 1<br/>value = [0, 1]>, fillcolor="#399de5ff"] ;
597 -> 598 ;
599 [label=<gini = 0.0<br/>samples = 5<br/>value = [5, 0]>, fillcolor="#e58139ff"] ;
597 -> 599 ;
600 [label=<X<SUB>34</SUB> &le; 0.004<br/>gini = 0.444<br/>samples = 3<br/>value = [2, 1]>, fillcolor="#e581397f"] ;
594 -> 600 ;
601 [label=<gini = 0.0<br/>samples = 1<br/>value = [0, 1]>, fillcolor="#399de5ff"] ;
600 -> 601 ;
602 [label=<gini = 0.0<br/>samples = 2<br/>value = [2, 0]>, fillcolor="#e58139ff"] ;
600 -> 602 ;
603 [label=<gini = 0.0<br/>samples = 1<br/>value = [0, 1]>, fillcolor="#399de5ff"] ;
591 -> 603 ;
604 [label=<X<SUB>42</SUB> &le; 0.001<br/>gini = 0.48<br/>samples = 10<br/>value = [4, 6]>, fillcolor="#399de555"] ;
586 -> 604 ;
605 [label=<X<SUB>41</SUB> &le; 0.0<br/>gini = 0.444<br/>samples = 6<br/>value = [4, 2]>, fillcolor="#e581397f"] ;
604 -> 605 ;
606 [label=<gini = 0.0<br/>samples = 2<br/>value = [0, 2]>, fillcolor="#399de5ff"] ;
605 -> 606 ;
607 [label=<gini = 0.0<br/>samples = 4<br/>value = [4, 0]>, fillcolor="#e58139ff"] ;
605 -> 607 ;
608 [label=<gini = 0.0<br/>samples = 4<br/>value = [0, 4]>, fillcolor="#399de5ff"] ;
604 -> 608 ;
609 [label=<X<SUB>7</SUB> &le; 0.102<br/>gini = 0.476<br/>samples = 23<br/>value = [9, 14]>, fillcolor="#399de55b"] ;
585 -> 609 ;
610 [label=<X<SUB>64</SUB> &le; 0.038<br/>gini = 0.219<br/>samples = 16<br/>value = [2, 14]>, fillcolor="#399de5db"] ;
609 -> 610 ;
611 [label=<gini = 0.0<br/>samples = 14<br/>value = [0, 14]>, fillcolor="#399de5ff"] ;
610 -> 611 ;
612 [label=<gini = 0.0<br/>samples = 2<br/>value = [2, 0]>, fillcolor="#e58139ff"] ;
610 -> 612 ;
613 [label=<gini = 0.0<br/>samples = 7<br/>value = [7, 0]>, fillcolor="#e58139ff"] ;
609 -> 613 ;
614 [label=<X<SUB>103</SUB> &le; 0.574<br/>gini = 0.364<br/>samples = 138<br/>value = [33, 105]>, fillcolor="#399de5af"] ;
584 -> 614 ;
615 [label=<X<SUB>30</SUB> &le; 0.011<br/>gini = 0.294<br/>samples = 123<br/>value = [22, 101]>, fillcolor="#399de5c7"] ;
614 -> 615 ;
616 [label=<X<SUB>74</SUB> &le; 0.012<br/>gini = 0.198<br/>samples = 99<br/>value = [11, 88]>, fillcolor="#399de5df"] ;
615 -> 616 ;
617 [label=<X<SUB>5</SUB> &le; 0.009<br/>gini = 0.154<br/>samples = 95<br/>value = [8, 87]>, fillcolor="#399de5e8"] ;
616 -> 617 ;
618 [label=<gini = 0.0<br/>samples = 2<br/>value = [2, 0]>, fillcolor="#e58139ff"] ;
617 -> 618 ;
619 [label=<X<SUB>15</SUB> &le; 144.388<br/>gini = 0.121<br/>samples = 93<br/>value = [6, 87]>, fillcolor="#399de5ed"] ;
617 -> 619 ;
620 [label=<X<SUB>10</SUB> &le; 553.447<br/>gini = 0.085<br/>samples = 90<br/>value = [4, 86]>, fillcolor="#399de5f3"] ;
619 -> 620 ;
621 [label=<gini = 0.0<br/>samples = 1<br/>value = [1, 0]>, fillcolor="#e58139ff"] ;
620 -> 621 ;
622 [label=<X<SUB>18</SUB> &le; 0.139<br/>gini = 0.065<br/>samples = 89<br/>value = [3, 86]>, fillcolor="#399de5f6"] ;
620 -> 622 ;
623 [label=<gini = 0.0<br/>samples = 76<br/>value = [0, 76]>, fillcolor="#399de5ff"] ;
622 -> 623 ;
624 [label=<X<SUB>51</SUB> &le; 0.0<br/>gini = 0.355<br/>samples = 13<br/>value = [3, 10]>, fillcolor="#399de5b3"] ;
622 -> 624 ;
625 [label=<gini = 0.0<br/>samples = 10<br/>value = [0, 10]>, fillcolor="#399de5ff"] ;
624 -> 625 ;
626 [label=<gini = 0.0<br/>samples = 3<br/>value = [3, 0]>, fillcolor="#e58139ff"] ;
624 -> 626 ;
627 [label=<X<SUB>45</SUB> &le; 0.001<br/>gini = 0.444<br/>samples = 3<br/>value = [2, 1]>, fillcolor="#e581397f"] ;
619 -> 627 ;
628 [label=<gini = 0.0<br/>samples = 1<br/>value = [0, 1]>, fillcolor="#399de5ff"] ;
627 -> 628 ;
629 [label=<gini = 0.0<br/>samples = 2<br/>value = [2, 0]>, fillcolor="#e58139ff"] ;
627 -> 629 ;
630 [label=<X<SUB>79</SUB> &le; 0.005<br/>gini = 0.375<br/>samples = 4<br/>value = [3, 1]>, fillcolor="#e58139aa"] ;
616 -> 630 ;
631 [label=<gini = 0.0<br/>samples = 3<br/>value = [3, 0]>, fillcolor="#e58139ff"] ;
630 -> 631 ;
632 [label=<gini = 0.0<br/>samples = 1<br/>value = [0, 1]>, fillcolor="#399de5ff"] ;
630 -> 632 ;
633 [label=<X<SUB>9</SUB> &le; 3598.347<br/>gini = 0.497<br/>samples = 24<br/>value = [11, 13]>, fillcolor="#399de527"] ;
615 -> 633 ;
634 [label=<X<SUB>26</SUB> &le; 0.019<br/>gini = 0.305<br/>samples = 16<br/>value = [3, 13]>, fillcolor="#399de5c4"] ;
633 -> 634 ;
635 [label=<gini = 0.0<br/>samples = 3<br/>value = [3, 0]>, fillcolor="#e58139ff"] ;
634 -> 635 ;
636 [label=<gini = 0.0<br/>samples = 13<br/>value = [0, 13]>, fillcolor="#399de5ff"] ;
634 -> 636 ;
637 [label=<gini = 0.0<br/>samples = 8<br/>value = [8, 0]>, fillcolor="#e58139ff"] ;
633 -> 637 ;
638 [label=<X<SUB>114</SUB> &le; 0.136<br/>gini = 0.391<br/>samples = 15<br/>value = [11, 4]>, fillcolor="#e58139a2"] ;
614 -> 638 ;
639 [label=<gini = 0.0<br/>samples = 10<br/>value = [10, 0]>, fillcolor="#e58139ff"] ;
638 -> 639 ;
640 [label=<X<SUB>97</SUB> &le; 0.05<br/>gini = 0.32<br/>samples = 5<br/>value = [1, 4]>, fillcolor="#399de5bf"] ;
638 -> 640 ;
641 [label=<gini = 0.0<br/>samples = 1<br/>value = [1, 0]>, fillcolor="#e58139ff"] ;
640 -> 641 ;
642 [label=<gini = 0.0<br/>samples = 4<br/>value = [0, 4]>, fillcolor="#399de5ff"] ;
640 -> 642 ;
643 [label=<X<SUB>103</SUB> &le; 0.506<br/>gini = 0.11<br/>samples = 2582<br/>value = [151, 2431]>, fillcolor="#399de5ef"] ;
209 -> 643 ;
644 [label=<X<SUB>89</SUB> &le; 0.203<br/>gini = 0.086<br/>samples = 2496<br/>value = [113, 2383]>, fillcolor="#399de5f3"] ;
643 -> 644 ;
645 [label=<X<SUB>90</SUB> &le; 0.03<br/>gini = 0.067<br/>samples = 2409<br/>value = [83, 2326]>, fillcolor="#399de5f6"] ;
644 -> 645 ;
646 [label=<X<SUB>52</SUB> &le; 0.008<br/>gini = 0.022<br/>samples = 1799<br/>value = [20, 1779]>, fillcolor="#399de5fc"] ;
645 -> 646 ;
647 [label=<X<SUB>100</SUB> &le; 0.278<br/>gini = 0.02<br/>samples = 1797<br/>value = [18, 1779]>, fillcolor="#399de5fc"] ;
646 -> 647 ;
648 [label=<X<SUB>17</SUB> &le; 0.944<br/>gini = 0.011<br/>samples = 1752<br/>value = [10, 1742]>, fillcolor="#399de5fe"] ;
647 -> 648 ;
649 [label=<X<SUB>19</SUB> &le; 0.18<br/>gini = 0.01<br/>samples = 1751<br/>value = [9, 1742]>, fillcolor="#399de5fe"] ;
648 -> 649 ;
650 [label=<X<SUB>117</SUB> &le; 0.065<br/>gini = 0.008<br/>samples = 1745<br/>value = [7, 1738]>, fillcolor="#399de5fe"] ;
649 -> 650 ;
651 [label=<X<SUB>30</SUB> &le; 0.018<br/>gini = 0.151<br/>samples = 73<br/>value = [6, 67]>, fillcolor="#399de5e8"] ;
650 -> 651 ;
652 [label=<X<SUB>5</SUB> &le; 0.026<br/>gini = 0.082<br/>samples = 70<br/>value = [3, 67]>, fillcolor="#399de5f4"] ;
651 -> 652 ;
653 [label=<X<SUB>117</SUB> &le; 0.064<br/>gini = 0.056<br/>samples = 69<br/>value = [2, 67]>, fillcolor="#399de5f7"] ;
652 -> 653 ;
654 [label=<X<SUB>122</SUB> &le; 0.012<br/>gini = 0.029<br/>samples = 68<br/>value = [1, 67]>, fillcolor="#399de5fb"] ;
653 -> 654 ;
655 [label=<X<SUB>94</SUB> &le; 0.045<br/>gini = 0.5<br/>samples = 2<br/>value = [1, 1]>, fillcolor="#e5813900"] ;
654 -> 655 ;
656 [label=<gini = 0.0<br/>samples = 1<br/>value = [1, 0]>, fillcolor="#e58139ff"] ;
655 -> 656 ;
657 [label=<gini = 0.0<br/>samples = 1<br/>value = [0, 1]>, fillcolor="#399de5ff"] ;
655 -> 657 ;
658 [label=<gini = 0.0<br/>samples = 66<br/>value = [0, 66]>, fillcolor="#399de5ff"] ;
654 -> 658 ;
659 [label=<gini = 0.0<br/>samples = 1<br/>value = [1, 0]>, fillcolor="#e58139ff"] ;
653 -> 659 ;
660 [label=<gini = 0.0<br/>samples = 1<br/>value = [1, 0]>, fillcolor="#e58139ff"] ;
652 -> 660 ;
661 [label=<gini = 0.0<br/>samples = 3<br/>value = [3, 0]>, fillcolor="#e58139ff"] ;
651 -> 661 ;
662 [label=<X<SUB>98</SUB> &le; 0.281<br/>gini = 0.001<br/>samples = 1672<br/>value = [1, 1671]>, fillcolor="#399de5ff"] ;
650 -> 662 ;
663 [label=<gini = 0.0<br/>samples = 1665<br/>value = [0, 1665]>, fillcolor="#399de5ff"] ;
662 -> 663 ;
664 [label=<X<SUB>35</SUB> &le; 0.002<br/>gini = 0.245<br/>samples = 7<br/>value = [1, 6]>, fillcolor="#399de5d4"] ;
662 -> 664 ;
665 [label=<gini = 0.0<br/>samples = 1<br/>value = [1, 0]>, fillcolor="#e58139ff"] ;
664 -> 665 ;
666 [label=<gini = 0.0<br/>samples = 6<br/>value = [0, 6]>, fillcolor="#399de5ff"] ;
664 -> 666 ;
667 [label=<X<SUB>60</SUB> &le; 0.032<br/>gini = 0.444<br/>samples = 6<br/>value = [2, 4]>, fillcolor="#399de57f"] ;
649 -> 667 ;
668 [label=<gini = 0.0<br/>samples = 4<br/>value = [0, 4]>, fillcolor="#399de5ff"] ;
667 -> 668 ;
669 [label=<gini = 0.0<br/>samples = 2<br/>value = [2, 0]>, fillcolor="#e58139ff"] ;
667 -> 669 ;
670 [label=<gini = 0.0<br/>samples = 1<br/>value = [1, 0]>, fillcolor="#e58139ff"] ;
648 -> 670 ;
671 [label=<X<SUB>6</SUB> &le; 0.01<br/>gini = 0.292<br/>samples = 45<br/>value = [8, 37]>, fillcolor="#399de5c8"] ;
647 -> 671 ;
672 [label=<X<SUB>58</SUB> &le; 0.181<br/>gini = 0.176<br/>samples = 41<br/>value = [4, 37]>, fillcolor="#399de5e3"] ;
671 -> 672 ;
673 [label=<X<SUB>53</SUB> &le; 0.002<br/>gini = 0.097<br/>samples = 39<br/>value = [2, 37]>, fillcolor="#399de5f1"] ;
672 -> 673 ;
674 [label=<X<SUB>12</SUB> &le; 1096.224<br/>gini = 0.051<br/>samples = 38<br/>value = [1, 37]>, fillcolor="#399de5f8"] ;
673 -> 674 ;
675 [label=<gini = 0.0<br/>samples = 1<br/>value = [1, 0]>, fillcolor="#e58139ff"] ;
674 -> 675 ;
676 [label=<gini = 0.0<br/>samples = 37<br/>value = [0, 37]>, fillcolor="#399de5ff"] ;
674 -> 676 ;
677 [label=<gini = 0.0<br/>samples = 1<br/>value = [1, 0]>, fillcolor="#e58139ff"] ;
673 -> 677 ;
678 [label=<gini = 0.0<br/>samples = 2<br/>value = [2, 0]>, fillcolor="#e58139ff"] ;
672 -> 678 ;
679 [label=<gini = 0.0<br/>samples = 4<br/>value = [4, 0]>, fillcolor="#e58139ff"] ;
671 -> 679 ;
680 [label=<gini = 0.0<br/>samples = 2<br/>value = [2, 0]>, fillcolor="#e58139ff"] ;
646 -> 680 ;
681 [label=<X<SUB>105</SUB> &le; 0.019<br/>gini = 0.185<br/>samples = 610<br/>value = [63, 547]>, fillcolor="#399de5e2"] ;
645 -> 681 ;
682 [label=<X<SUB>118</SUB> &le; 0.135<br/>gini = 0.245<br/>samples = 7<br/>value = [6, 1]>, fillcolor="#e58139d4"] ;
681 -> 682 ;
683 [label=<gini = 0.0<br/>samples = 6<br/>value = [6, 0]>, fillcolor="#e58139ff"] ;
682 -> 683 ;
684 [label=<gini = 0.0<br/>samples = 1<br/>value = [0, 1]>, fillcolor="#399de5ff"] ;
682 -> 684 ;
685 [label=<X<SUB>5</SUB> &le; 0.01<br/>gini = 0.171<br/>samples = 603<br/>value = [57, 546]>, fillcolor="#399de5e4"] ;
681 -> 685 ;
686 [label=<X<SUB>14</SUB> &le; 976.682<br/>gini = 0.416<br/>samples = 61<br/>value = [18, 43]>, fillcolor="#399de594"] ;
685 -> 686 ;
687 [label=<X<SUB>111</SUB> &le; 0.333<br/>gini = 0.306<br/>samples = 53<br/>value = [10, 43]>, fillcolor="#399de5c4"] ;
686 -> 687 ;
688 [label=<X<SUB>61</SUB> &le; 0.059<br/>gini = 0.241<br/>samples = 50<br/>value = [7, 43]>, fillcolor="#399de5d5"] ;
687 -> 688 ;
689 [label=<X<SUB>102</SUB> &le; 0.02<br/>gini = 0.187<br/>samples = 48<br/>value = [5, 43]>, fillcolor="#399de5e1"] ;
688 -> 689 ;
690 [label=<X<SUB>14</SUB> &le; 275.875<br/>gini = 0.5<br/>samples = 6<br/>value = [3, 3]>, fillcolor="#e5813900"] ;
689 -> 690 ;
691 [label=<gini = 0.0<br/>samples = 3<br/>value = [0, 3]>, fillcolor="#399de5ff"] ;
690 -> 691 ;
692 [label=<gini = 0.0<br/>samples = 3<br/>value = [3, 0]>, fillcolor="#e58139ff"] ;
690 -> 692 ;
693 [label=<X<SUB>101</SUB> &le; 0.538<br/>gini = 0.091<br/>samples = 42<br/>value = [2, 40]>, fillcolor="#399de5f2"] ;
689 -> 693 ;
694 [label=<X<SUB>20</SUB> &le; 0.076<br/>gini = 0.048<br/>samples = 41<br/>value = [1, 40]>, fillcolor="#399de5f9"] ;
693 -> 694 ;
695 [label=<gini = 0.0<br/>samples = 39<br/>value = [0, 39]>, fillcolor="#399de5ff"] ;
694 -> 695 ;
696 [label=<X<SUB>54</SUB> &le; 0.0<br/>gini = 0.5<br/>samples = 2<br/>value = [1, 1]>, fillcolor="#e5813900"] ;
694 -> 696 ;
697 [label=<gini = 0.0<br/>samples = 1<br/>value = [1, 0]>, fillcolor="#e58139ff"] ;
696 -> 697 ;
698 [label=<gini = 0.0<br/>samples = 1<br/>value = [0, 1]>, fillcolor="#399de5ff"] ;
696 -> 698 ;
699 [label=<gini = 0.0<br/>samples = 1<br/>value = [1, 0]>, fillcolor="#e58139ff"] ;
693 -> 699 ;
700 [label=<gini = 0.0<br/>samples = 2<br/>value = [2, 0]>, fillcolor="#e58139ff"] ;
688 -> 700 ;
701 [label=<gini = 0.0<br/>samples = 3<br/>value = [3, 0]>, fillcolor="#e58139ff"] ;
687 -> 701 ;
702 [label=<gini = 0.0<br/>samples = 8<br/>value = [8, 0]>, fillcolor="#e58139ff"] ;
686 -> 702 ;
703 [label=<X<SUB>118</SUB> &le; 0.254<br/>gini = 0.134<br/>samples = 542<br/>value = [39, 503]>, fillcolor="#399de5eb"] ;
685 -> 703 ;
704 [label=<X<SUB>61</SUB> &le; 0.066<br/>gini = 0.117<br/>samples = 531<br/>value = [33, 498]>, fillcolor="#399de5ee"] ;
703 -> 704 ;
705 [label=<X<SUB>6</SUB> &le; 0.01<br/>gini = 0.11<br/>samples = 529<br/>value = [31, 498]>, fillcolor="#399de5ef"] ;
704 -> 705 ;
706 [label=<X<SUB>73</SUB> &le; 0.017<br/>gini = 0.059<br/>samples = 395<br/>value = [12, 383]>, fillcolor="#399de5f7"] ;
705 -> 706 ;
707 [label=<X<SUB>21</SUB> &le; 0.112<br/>gini = 0.05<br/>samples = 393<br/>value = [10, 383]>, fillcolor="#399de5f8"] ;
706 -> 707 ;
708 [label=<X<SUB>6</SUB> &le; 0.005<br/>gini = 0.045<br/>samples = 392<br/>value = [9, 383]>, fillcolor="#399de5f9"] ;
707 -> 708 ;
709 [label=<X<SUB>0</SUB> &le; 102.0<br/>gini = 0.5<br/>samples = 2<br/>value = [1, 1]>, fillcolor="#e5813900"] ;
708 -> 709 ;
710 [label=<gini = 0.0<br/>samples = 1<br/>value = [1, 0]>, fillcolor="#e58139ff"] ;
709 -> 710 ;
711 [label=<gini = 0.0<br/>samples = 1<br/>value = [0, 1]>, fillcolor="#399de5ff"] ;
709 -> 711 ;
712 [label=<X<SUB>15</SUB> &le; 103.55<br/>gini = 0.04<br/>samples = 390<br/>value = [8, 382]>, fillcolor="#399de5fa"] ;
708 -> 712 ;
713 [label=<X<SUB>32</SUB> &le; 0.0<br/>gini = 0.127<br/>samples = 103<br/>value = [7, 96]>, fillcolor="#399de5ec"] ;
712 -> 713 ;
714 [label=<gini = 0.0<br/>samples = 1<br/>value = [1, 0]>, fillcolor="#e58139ff"] ;
713 -> 714 ;
715 [label=<X<SUB>92</SUB> &le; 0.478<br/>gini = 0.111<br/>samples = 102<br/>value = [6, 96]>, fillcolor="#399de5ef"] ;
713 -> 715 ;
716 [label=<X<SUB>105</SUB> &le; 0.25<br/>gini = 0.094<br/>samples = 101<br/>value = [5, 96]>, fillcolor="#399de5f2"] ;
715 -> 716 ;
717 [label=<X<SUB>15</SUB> &le; 103.266<br/>gini = 0.077<br/>samples = 100<br/>value = [4, 96]>, fillcolor="#399de5f4"] ;
716 -> 717 ;
718 [label=<X<SUB>117</SUB> &le; 0.238<br/>gini = 0.059<br/>samples = 99<br/>value = [3, 96]>, fillcolor="#399de5f7"] ;
717 -> 718 ;
719 [label=<gini = 0.0<br/>samples = 89<br/>value = [0, 89]>, fillcolor="#399de5ff"] ;
718 -> 719 ;
720 [label=<X<SUB>11</SUB> &le; 6999.951<br/>gini = 0.42<br/>samples = 10<br/>value = [3, 7]>, fillcolor="#399de592"] ;
718 -> 720 ;
721 [label=<gini = 0.0<br/>samples = 7<br/>value = [0, 7]>, fillcolor="#399de5ff"] ;
720 -> 721 ;
722 [label=<gini = 0.0<br/>samples = 3<br/>value = [3, 0]>, fillcolor="#e58139ff"] ;
720 -> 722 ;
723 [label=<gini = 0.0<br/>samples = 1<br/>value = [1, 0]>, fillcolor="#e58139ff"] ;
717 -> 723 ;
724 [label=<gini = 0.0<br/>samples = 1<br/>value = [1, 0]>, fillcolor="#e58139ff"] ;
716 -> 724 ;
725 [label=<gini = 0.0<br/>samples = 1<br/>value = [1, 0]>, fillcolor="#e58139ff"] ;
715 -> 725 ;
726 [label=<X<SUB>5</SUB> &le; 0.023<br/>gini = 0.007<br/>samples = 287<br/>value = [1, 286]>, fillcolor="#399de5fe"] ;
712 -> 726 ;
727 [label=<gini = 0.0<br/>samples = 277<br/>value = [0, 277]>, fillcolor="#399de5ff"] ;
726 -> 727 ;
728 [label=<X<SUB>97</SUB> &le; 0.004<br/>gini = 0.18<br/>samples = 10<br/>value = [1, 9]>, fillcolor="#399de5e3"] ;
726 -> 728 ;
729 [label=<gini = 0.0<br/>samples = 1<br/>value = [1, 0]>, fillcolor="#e58139ff"] ;
728 -> 729 ;
730 [label=<gini = 0.0<br/>samples = 9<br/>value = [0, 9]>, fillcolor="#399de5ff"] ;
728 -> 730 ;
731 [label=<gini = 0.0<br/>samples = 1<br/>value = [1, 0]>, fillcolor="#e58139ff"] ;
707 -> 731 ;
732 [label=<gini = 0.0<br/>samples = 2<br/>value = [2, 0]>, fillcolor="#e58139ff"] ;
706 -> 732 ;
733 [label=<X<SUB>12</SUB> &le; 1769.993<br/>gini = 0.243<br/>samples = 134<br/>value = [19, 115]>, fillcolor="#399de5d5"] ;
705 -> 733 ;
734 [label=<X<SUB>0</SUB> &le; 119.5<br/>gini = 0.491<br/>samples = 23<br/>value = [10, 13]>, fillcolor="#399de53b"] ;
733 -> 734 ;
735 [label=<X<SUB>100</SUB> &le; 0.202<br/>gini = 0.375<br/>samples = 12<br/>value = [9, 3]>, fillcolor="#e58139aa"] ;
734 -> 735 ;
736 [label=<X<SUB>35</SUB> &le; 0.037<br/>gini = 0.18<br/>samples = 10<br/>value = [9, 1]>, fillcolor="#e58139e3"] ;
735 -> 736 ;
737 [label=<gini = 0.0<br/>samples = 9<br/>value = [9, 0]>, fillcolor="#e58139ff"] ;
736 -> 737 ;
738 [label=<gini = 0.0<br/>samples = 1<br/>value = [0, 1]>, fillcolor="#399de5ff"] ;
736 -> 738 ;
739 [label=<gini = 0.0<br/>samples = 2<br/>value = [0, 2]>, fillcolor="#399de5ff"] ;
735 -> 739 ;
740 [label=<X<SUB>51</SUB> &le; 0.0<br/>gini = 0.165<br/>samples = 11<br/>value = [1, 10]>, fillcolor="#399de5e6"] ;
734 -> 740 ;
741 [label=<gini = 0.0<br/>samples = 1<br/>value = [1, 0]>, fillcolor="#e58139ff"] ;
740 -> 741 ;
742 [label=<gini = 0.0<br/>samples = 10<br/>value = [0, 10]>, fillcolor="#399de5ff"] ;
740 -> 742 ;
743 [label=<X<SUB>91</SUB> &le; 0.043<br/>gini = 0.149<br/>samples = 111<br/>value = [9, 102]>, fillcolor="#399de5e9"] ;
733 -> 743 ;
744 [label=<X<SUB>34</SUB> &le; 0.012<br/>gini = 0.5<br/>samples = 6<br/>value = [3, 3]>, fillcolor="#e5813900"] ;
743 -> 744 ;
745 [label=<gini = 0.0<br/>samples = 3<br/>value = [0, 3]>, fillcolor="#399de5ff"] ;
744 -> 745 ;
746 [label=<gini = 0.0<br/>samples = 3<br/>value = [3, 0]>, fillcolor="#e58139ff"] ;
744 -> 746 ;
747 [label=<X<SUB>64</SUB> &le; 0.04<br/>gini = 0.108<br/>samples = 105<br/>value = [6, 99]>, fillcolor="#399de5f0"] ;
743 -> 747 ;
748 [label=<X<SUB>122</SUB> &le; 0.987<br/>gini = 0.092<br/>samples = 104<br/>value = [5, 99]>, fillcolor="#399de5f2"] ;
747 -> 748 ;
749 [label=<X<SUB>84</SUB> &le; 0.007<br/>gini = 0.075<br/>samples = 103<br/>value = [4, 99]>, fillcolor="#399de5f5"] ;
748 -> 749 ;
750 [label=<X<SUB>106</SUB> &le; 0.263<br/>gini = 0.057<br/>samples = 102<br/>value = [3, 99]>, fillcolor="#399de5f7"] ;
749 -> 750 ;
751 [label=<X<SUB>105</SUB> &le; 0.285<br/>gini = 0.039<br/>samples = 101<br/>value = [2, 99]>, fillcolor="#399de5fa"] ;
750 -> 751 ;
752 [label=<X<SUB>69</SUB> &le; 0.019<br/>gini = 0.02<br/>samples = 99<br/>value = [1, 98]>, fillcolor="#399de5fc"] ;
751 -> 752 ;
753 [label=<gini = 0.0<br/>samples = 95<br/>value = [0, 95]>, fillcolor="#399de5ff"] ;
752 -> 753 ;
754 [label=<X<SUB>4</SUB> &le; 13.225<br/>gini = 0.375<br/>samples = 4<br/>value = [1, 3]>, fillcolor="#399de5aa"] ;
752 -> 754 ;
755 [label=<gini = 0.0<br/>samples = 1<br/>value = [1, 0]>, fillcolor="#e58139ff"] ;
754 -> 755 ;
756 [label=<gini = 0.0<br/>samples = 3<br/>value = [0, 3]>, fillcolor="#399de5ff"] ;
754 -> 756 ;
757 [label=<X<SUB>51</SUB> &le; 0.002<br/>gini = 0.5<br/>samples = 2<br/>value = [1, 1]>, fillcolor="#e5813900"] ;
751 -> 757 ;
758 [label=<gini = 0.0<br/>samples = 1<br/>value = [1, 0]>, fillcolor="#e58139ff"] ;
757 -> 758 ;
759 [label=<gini = 0.0<br/>samples = 1<br/>value = [0, 1]>, fillcolor="#399de5ff"] ;
757 -> 759 ;
760 [label=<gini = 0.0<br/>samples = 1<br/>value = [1, 0]>, fillcolor="#e58139ff"] ;
750 -> 760 ;
761 [label=<gini = 0.0<br/>samples = 1<br/>value = [1, 0]>, fillcolor="#e58139ff"] ;
749 -> 761 ;
762 [label=<gini = 0.0<br/>samples = 1<br/>value = [1, 0]>, fillcolor="#e58139ff"] ;
748 -> 762 ;
763 [label=<gini = 0.0<br/>samples = 1<br/>value = [1, 0]>, fillcolor="#e58139ff"] ;
747 -> 763 ;
764 [label=<gini = 0.0<br/>samples = 2<br/>value = [2, 0]>, fillcolor="#e58139ff"] ;
704 -> 764 ;
765 [label=<X<SUB>105</SUB> &le; 0.17<br/>gini = 0.496<br/>samples = 11<br/>value = [6, 5]>, fillcolor="#e581392a"] ;
703 -> 765 ;
766 [label=<X<SUB>22</SUB> &le; 0.045<br/>gini = 0.278<br/>samples = 6<br/>value = [1, 5]>, fillcolor="#399de5cc"] ;
765 -> 766 ;
767 [label=<gini = 0.0<br/>samples = 5<br/>value = [0, 5]>, fillcolor="#399de5ff"] ;
766 -> 767 ;
768 [label=<gini = 0.0<br/>samples = 1<br/>value = [1, 0]>, fillcolor="#e58139ff"] ;
766 -> 768 ;
769 [label=<gini = 0.0<br/>samples = 5<br/>value = [5, 0]>, fillcolor="#e58139ff"] ;
765 -> 769 ;
770 [label=<X<SUB>107</SUB> &le; 0.034<br/>gini = 0.452<br/>samples = 87<br/>value = [30, 57]>, fillcolor="#399de579"] ;
644 -> 770 ;
771 [label=<X<SUB>90</SUB> &le; 0.208<br/>gini = 0.355<br/>samples = 26<br/>value = [20, 6]>, fillcolor="#e58139b3"] ;
770 -> 771 ;
772 [label=<gini = 0.0<br/>samples = 4<br/>value = [0, 4]>, fillcolor="#399de5ff"] ;
771 -> 772 ;
773 [label=<X<SUB>29</SUB> &le; 0.017<br/>gini = 0.165<br/>samples = 22<br/>value = [20, 2]>, fillcolor="#e58139e6"] ;
771 -> 773 ;
774 [label=<gini = 0.0<br/>samples = 20<br/>value = [20, 0]>, fillcolor="#e58139ff"] ;
773 -> 774 ;
775 [label=<gini = 0.0<br/>samples = 2<br/>value = [0, 2]>, fillcolor="#399de5ff"] ;
773 -> 775 ;
776 [label=<X<SUB>3</SUB> &le; 29.76<br/>gini = 0.274<br/>samples = 61<br/>value = [10, 51]>, fillcolor="#399de5cd"] ;
770 -> 776 ;
777 [label=<X<SUB>109</SUB> &le; 0.024<br/>gini = 0.212<br/>samples = 58<br/>value = [7, 51]>, fillcolor="#399de5dc"] ;
776 -> 777 ;
778 [label=<X<SUB>118</SUB> &le; 0.137<br/>gini = 0.375<br/>samples = 4<br/>value = [3, 1]>, fillcolor="#e58139aa"] ;
777 -> 778 ;
779 [label=<gini = 0.0<br/>samples = 3<br/>value = [3, 0]>, fillcolor="#e58139ff"] ;
778 -> 779 ;
780 [label=<gini = 0.0<br/>samples = 1<br/>value = [0, 1]>, fillcolor="#399de5ff"] ;
778 -> 780 ;
781 [label=<X<SUB>90</SUB> &le; 0.019<br/>gini = 0.137<br/>samples = 54<br/>value = [4, 50]>, fillcolor="#399de5eb"] ;
777 -> 781 ;
782 [label=<gini = 0.0<br/>samples = 1<br/>value = [1, 0]>, fillcolor="#e58139ff"] ;
781 -> 782 ;
783 [label=<X<SUB>6</SUB> &le; 0.011<br/>gini = 0.107<br/>samples = 53<br/>value = [3, 50]>, fillcolor="#399de5f0"] ;
781 -> 783 ;
784 [label=<X<SUB>7</SUB> &le; 0.154<br/>gini = 0.075<br/>samples = 51<br/>value = [2, 49]>, fillcolor="#399de5f5"] ;
783 -> 784 ;
785 [label=<X<SUB>95</SUB> &le; 0.386<br/>gini = 0.04<br/>samples = 49<br/>value = [1, 48]>, fillcolor="#399de5fa"] ;
784 -> 785 ;
786 [label=<gini = 0.0<br/>samples = 42<br/>value = [0, 42]>, fillcolor="#399de5ff"] ;
785 -> 786 ;
787 [label=<X<SUB>92</SUB> &le; 0.287<br/>gini = 0.245<br/>samples = 7<br/>value = [1, 6]>, fillcolor="#399de5d4"] ;
785 -> 787 ;
788 [label=<gini = 0.0<br/>samples = 1<br/>value = [1, 0]>, fillcolor="#e58139ff"] ;
787 -> 788 ;
789 [label=<gini = 0.0<br/>samples = 6<br/>value = [0, 6]>, fillcolor="#399de5ff"] ;
787 -> 789 ;
790 [label=<X<SUB>80</SUB> &le; 0.001<br/>gini = 0.5<br/>samples = 2<br/>value = [1, 1]>, fillcolor="#e5813900"] ;
784 -> 790 ;
791 [label=<gini = 0.0<br/>samples = 1<br/>value = [1, 0]>, fillcolor="#e58139ff"] ;
790 -> 791 ;
792 [label=<gini = 0.0<br/>samples = 1<br/>value = [0, 1]>, fillcolor="#399de5ff"] ;
790 -> 792 ;
793 [label=<X<SUB>46</SUB> &le; 0.0<br/>gini = 0.5<br/>samples = 2<br/>value = [1, 1]>, fillcolor="#e5813900"] ;
783 -> 793 ;
794 [label=<gini = 0.0<br/>samples = 1<br/>value = [0, 1]>, fillcolor="#399de5ff"] ;
793 -> 794 ;
795 [label=<gini = 0.0<br/>samples = 1<br/>value = [1, 0]>, fillcolor="#e58139ff"] ;
793 -> 795 ;
796 [label=<gini = 0.0<br/>samples = 3<br/>value = [3, 0]>, fillcolor="#e58139ff"] ;
776 -> 796 ;
797 [label=<X<SUB>5</SUB> &le; 0.013<br/>gini = 0.493<br/>samples = 86<br/>value = [38, 48]>, fillcolor="#399de535"] ;
643 -> 797 ;
798 [label=<X<SUB>18</SUB> &le; 0.056<br/>gini = 0.095<br/>samples = 20<br/>value = [19, 1]>, fillcolor="#e58139f2"] ;
797 -> 798 ;
799 [label=<gini = 0.0<br/>samples = 1<br/>value = [0, 1]>, fillcolor="#399de5ff"] ;
798 -> 799 ;
800 [label=<gini = 0.0<br/>samples = 19<br/>value = [19, 0]>, fillcolor="#e58139ff"] ;
798 -> 800 ;
801 [label=<X<SUB>14</SUB> &le; 1126.37<br/>gini = 0.41<br/>samples = 66<br/>value = [19, 47]>, fillcolor="#399de598"] ;
797 -> 801 ;
802 [label=<X<SUB>20</SUB> &le; 0.019<br/>gini = 0.059<br/>samples = 33<br/>value = [1, 32]>, fillcolor="#399de5f7"] ;
801 -> 802 ;
803 [label=<gini = 0.0<br/>samples = 1<br/>value = [1, 0]>, fillcolor="#e58139ff"] ;
802 -> 803 ;
804 [label=<gini = 0.0<br/>samples = 32<br/>value = [0, 32]>, fillcolor="#399de5ff"] ;
802 -> 804 ;
805 [label=<X<SUB>84</SUB> &le; 0.0<br/>gini = 0.496<br/>samples = 33<br/>value = [18, 15]>, fillcolor="#e581392a"] ;
801 -> 805 ;
806 [label=<X<SUB>19</SUB> &le; 0.022<br/>gini = 0.403<br/>samples = 25<br/>value = [18, 7]>, fillcolor="#e581399c"] ;
805 -> 806 ;
807 [label=<gini = 0.0<br/>samples = 3<br/>value = [0, 3]>, fillcolor="#399de5ff"] ;
806 -> 807 ;
808 [label=<X<SUB>4</SUB> &le; 3.093<br/>gini = 0.298<br/>samples = 22<br/>value = [18, 4]>, fillcolor="#e58139c6"] ;
806 -> 808 ;
809 [label=<gini = 0.0<br/>samples = 2<br/>value = [0, 2]>, fillcolor="#399de5ff"] ;
808 -> 809 ;
810 [label=<X<SUB>57</SUB> &le; 0.381<br/>gini = 0.18<br/>samples = 20<br/>value = [18, 2]>, fillcolor="#e58139e3"] ;
808 -> 810 ;
811 [label=<X<SUB>18</SUB> &le; 0.07<br/>gini = 0.444<br/>samples = 3<br/>value = [1, 2]>, fillcolor="#399de57f"] ;
810 -> 811 ;
812 [label=<gini = 0.0<br/>samples = 1<br/>value = [1, 0]>, fillcolor="#e58139ff"] ;
811 -> 812 ;
813 [label=<gini = 0.0<br/>samples = 2<br/>value = [0, 2]>, fillcolor="#399de5ff"] ;
811 -> 813 ;
814 [label=<gini = 0.0<br/>samples = 17<br/>value = [17, 0]>, fillcolor="#e58139ff"] ;
810 -> 814 ;
815 [label=<gini = 0.0<br/>samples = 8<br/>value = [0, 8]>, fillcolor="#399de5ff"] ;
805 -> 815 ;
816 [label=<X<SUB>104</SUB> &le; 0.171<br/>gini = 0.42<br/>samples = 297<br/>value = [208, 89]>, fillcolor="#e5813992"] ;
208 -> 816 ;
817 [label=<X<SUB>90</SUB> &le; 0.393<br/>gini = 0.237<br/>samples = 197<br/>value = [170, 27]>, fillcolor="#e58139d6"] ;
816 -> 817 ;
818 [label=<X<SUB>99</SUB> &le; 0.128<br/>gini = 0.444<br/>samples = 81<br/>value = [54, 27]>, fillcolor="#e581397f"] ;
817 -> 818 ;
819 [label=<X<SUB>63</SUB> &le; 0.023<br/>gini = 0.219<br/>samples = 16<br/>value = [2, 14]>, fillcolor="#399de5db"] ;
818 -> 819 ;
820 [label=<gini = 0.0<br/>samples = 14<br/>value = [0, 14]>, fillcolor="#399de5ff"] ;
819 -> 820 ;
821 [label=<gini = 0.0<br/>samples = 2<br/>value = [2, 0]>, fillcolor="#e58139ff"] ;
819 -> 821 ;
822 [label=<X<SUB>58</SUB> &le; 0.101<br/>gini = 0.32<br/>samples = 65<br/>value = [52, 13]>, fillcolor="#e58139bf"] ;
818 -> 822 ;
823 [label=<gini = 0.0<br/>samples = 5<br/>value = [0, 5]>, fillcolor="#399de5ff"] ;
822 -> 823 ;
824 [label=<X<SUB>103</SUB> &le; 0.547<br/>gini = 0.231<br/>samples = 60<br/>value = [52, 8]>, fillcolor="#e58139d8"] ;
822 -> 824 ;
825 [label=<X<SUB>36</SUB> &le; 0.017<br/>gini = 0.077<br/>samples = 50<br/>value = [48, 2]>, fillcolor="#e58139f4"] ;
824 -> 825 ;
826 [label=<X<SUB>106</SUB> &le; 0.213<br/>gini = 0.04<br/>samples = 49<br/>value = [48, 1]>, fillcolor="#e58139fa"] ;
825 -> 826 ;
827 [label=<gini = 0.0<br/>samples = 48<br/>value = [48, 0]>, fillcolor="#e58139ff"] ;
826 -> 827 ;
828 [label=<gini = 0.0<br/>samples = 1<br/>value = [0, 1]>, fillcolor="#399de5ff"] ;
826 -> 828 ;
829 [label=<gini = 0.0<br/>samples = 1<br/>value = [0, 1]>, fillcolor="#399de5ff"] ;
825 -> 829 ;
830 [label=<X<SUB>8</SUB> &le; 0.061<br/>gini = 0.48<br/>samples = 10<br/>value = [4, 6]>, fillcolor="#399de555"] ;
824 -> 830 ;
831 [label=<gini = 0.0<br/>samples = 6<br/>value = [0, 6]>, fillcolor="#399de5ff"] ;
830 -> 831 ;
832 [label=<gini = 0.0<br/>samples = 4<br/>value = [4, 0]>, fillcolor="#e58139ff"] ;
830 -> 832 ;
833 [label=<gini = 0.0<br/>samples = 116<br/>value = [116, 0]>, fillcolor="#e58139ff"] ;
817 -> 833 ;
834 [label=<X<SUB>5</SUB> &le; 0.01<br/>gini = 0.471<br/>samples = 100<br/>value = [38, 62]>, fillcolor="#399de563"] ;
816 -> 834 ;
835 [label=<X<SUB>17</SUB> &le; 0.505<br/>gini = 0.219<br/>samples = 16<br/>value = [14, 2]>, fillcolor="#e58139db"] ;
834 -> 835 ;
836 [label=<gini = 0.0<br/>samples = 14<br/>value = [14, 0]>, fillcolor="#e58139ff"] ;
835 -> 836 ;
837 [label=<gini = 0.0<br/>samples = 2<br/>value = [0, 2]>, fillcolor="#399de5ff"] ;
835 -> 837 ;
838 [label=<X<SUB>91</SUB> &le; 0.105<br/>gini = 0.408<br/>samples = 84<br/>value = [24, 60]>, fillcolor="#399de599"] ;
834 -> 838 ;
839 [label=<X<SUB>98</SUB> &le; 0.289<br/>gini = 0.187<br/>samples = 48<br/>value = [5, 43]>, fillcolor="#399de5e1"] ;
838 -> 839 ;
840 [label=<X<SUB>122</SUB> &le; 0.026<br/>gini = 0.122<br/>samples = 46<br/>value = [3, 43]>, fillcolor="#399de5ed"] ;
839 -> 840 ;
841 [label=<gini = 0.0<br/>samples = 1<br/>value = [1, 0]>, fillcolor="#e58139ff"] ;
840 -> 841 ;
842 [label=<X<SUB>54</SUB> &le; 0.002<br/>gini = 0.085<br/>samples = 45<br/>value = [2, 43]>, fillcolor="#399de5f3"] ;
840 -> 842 ;
843 [label=<X<SUB>89</SUB> &le; 0.597<br/>gini = 0.044<br/>samples = 44<br/>value = [1, 43]>, fillcolor="#399de5f9"] ;
842 -> 843 ;
844 [label=<gini = 0.0<br/>samples = 43<br/>value = [0, 43]>, fillcolor="#399de5ff"] ;
843 -> 844 ;
845 [label=<gini = 0.0<br/>samples = 1<br/>value = [1, 0]>, fillcolor="#e58139ff"] ;
843 -> 845 ;
846 [label=<gini = 0.0<br/>samples = 1<br/>value = [1, 0]>, fillcolor="#e58139ff"] ;
842 -> 846 ;
847 [label=<gini = 0.0<br/>samples = 2<br/>value = [2, 0]>, fillcolor="#e58139ff"] ;
839 -> 847 ;
848 [label=<X<SUB>110</SUB> &le; 0.241<br/>gini = 0.498<br/>samples = 36<br/>value = [19, 17]>, fillcolor="#e581391b"] ;
838 -> 848 ;
849 [label=<X<SUB>37</SUB> &le; 0.005<br/>gini = 0.298<br/>samples = 22<br/>value = [18, 4]>, fillcolor="#e58139c6"] ;
848 -> 849 ;
850 [label=<gini = 0.0<br/>samples = 16<br/>value = [16, 0]>, fillcolor="#e58139ff"] ;
849 -> 850 ;
851 [label=<X<SUB>28</SUB> &le; 0.022<br/>gini = 0.444<br/>samples = 6<br/>value = [2, 4]>, fillcolor="#399de57f"] ;
849 -> 851 ;
852 [label=<gini = 0.0<br/>samples = 4<br/>value = [0, 4]>, fillcolor="#399de5ff"] ;
851 -> 852 ;
853 [label=<gini = 0.0<br/>samples = 2<br/>value = [2, 0]>, fillcolor="#e58139ff"] ;
851 -> 853 ;
